#pragma once
#include <cstdarg>
namespace Eloquent {
    namespace ML {
        namespace Port {
            class SVM {
                public:
                    /**
                    * Predict class for features vector
                    */
                    int predict(float *x) {
                        float kernels[124] = { 0 };
                        float decisions[6] = { 0 };
                        int votes[4] = { 0 };
                        kernels[0] = compute_kernel(x,   -0.0  , 0.0  , 0.0  , 0.01  , 0.03  , 0.06  , 0.1  , 0.09  , 0.1  , 0.13  , 0.0  , 0.0  , 0.0  , 0.0  , 0.0  , 0.0  , 0.0  , 0.0  , 0.0  , 0.0  , 0.0  , 0.0  , 0.0  , 0.0  , 0.0  , 0.0  , 0.0  , 0.0  , 0.0  , 0.0  , 0.0  , 0.0  , 0.0  , 0.0  , 0.0  , 0.0  , 0.0  , 0.0  , 0.0  , 0.0  , 0.0  , 0.0  , 0.0  , 0.0  , 0.0  , 0.0  , 0.0  , 0.0  , 0.0  , 0.0  , 0.0  , 0.0  , 0.01  , 0.02  , 0.13  , 0.23  , 0.27  , 0.26  , 0.24  , 0.19  , 0.0  , 0.0  , 0.0  , 0.0  , 0.0  , 0.0  , 0.0  , 0.0  , 0.0  , 0.0  , 0.0  , 0.0  , 0.0  , 0.0  , 0.0  , 0.0  , 0.0  , 0.0  , 0.0  , 0.0  , 0.0  , 0.0  , 0.0  , 0.0  , 0.0  , 0.0  , 0.0  , 0.0  , 0.0  , 0.0  , 0.0  , 0.0  , 0.0  , 0.0  , 0.0  , 0.0  , 0.0  , 0.0  , 0.0  , 0.0 );
                        kernels[1] = compute_kernel(x,   -0.01  , 0.0  , 0.02  , 0.04  , 0.06  , 0.09  , 0.13  , 0.16  , 0.2  , 0.0  , 0.0  , 0.0  , 0.0  , 0.0  , 0.0  , 0.0  , 0.0  , 0.0  , 0.0  , 0.0  , 0.0  , 0.0  , 0.0  , 0.0  , 0.0  , 0.0  , 0.0  , 0.0  , 0.0  , 0.0  , 0.0  , 0.0  , 0.0  , 0.0  , 0.0  , 0.0  , 0.0  , 0.0  , 0.0  , 0.0  , 0.0  , 0.0  , 0.0  , 0.0  , 0.0  , 0.0  , 0.0  , 0.0  , 0.0  , 0.0  , 0.08  , 0.14  , 0.18  , 0.17  , 0.15  , 0.13  , 0.1  , 0.07  , 0.05  , 0.0  , 0.0  , 0.0  , 0.0  , 0.0  , 0.0  , 0.0  , 0.0  , 0.0  , 0.0  , 0.0  , 0.0  , 0.0  , 0.0  , 0.0  , 0.0  , 0.0  , 0.0  , 0.0  , 0.0  , 0.0  , 0.0  , 0.0  , 0.0  , 0.0  , 0.0  , 0.0  , 0.0  , 0.0  , 0.0  , 0.0  , 0.0  , 0.0  , 0.0  , 0.0  , 0.0  , 0.0  , 0.0  , 0.0  , 0.0  , 0.0 );
                        kernels[2] = compute_kernel(x,   0.0  , -0.02  , -0.02  , 0.04  , 0.05  , 0.05  , 0.05  , 0.05  , 0.0  , 0.0  , 0.0  , 0.0  , 0.0  , 0.0  , 0.0  , 0.0  , 0.0  , 0.0  , 0.0  , 0.0  , 0.0  , 0.0  , 0.0  , 0.0  , 0.0  , 0.0  , 0.0  , 0.0  , 0.0  , 0.0  , 0.0  , 0.0  , 0.0  , 0.0  , 0.0  , 0.0  , 0.0  , 0.0  , 0.0  , 0.0  , 0.0  , 0.0  , 0.0  , 0.0  , 0.0  , 0.0  , 0.0  , 0.0  , 0.0  , 0.0  , 0.01  , 0.07  , 0.18  , 0.27  , 0.27  , 0.26  , 0.25  , 0.23  , 0.0  , 0.0  , 0.0  , 0.0  , 0.0  , 0.0  , 0.0  , 0.0  , 0.0  , 0.0  , 0.0  , 0.0  , 0.0  , 0.0  , 0.0  , 0.0  , 0.0  , 0.0  , 0.0  , 0.0  , 0.0  , 0.0  , 0.0  , 0.0  , 0.0  , 0.0  , 0.0  , 0.0  , 0.0  , 0.0  , 0.0  , 0.0  , 0.0  , 0.0  , 0.0  , 0.0  , 0.0  , 0.0  , 0.0  , 0.0  , 0.0  , 0.0 );
                        kernels[3] = compute_kernel(x,   -0.0  , -0.0  , -0.01  , -0.01  , 0.05  , 0.13  , 0.16  , 0.17  , 0.17  , 0.18  , 0.0  , 0.0  , 0.0  , 0.0  , 0.0  , 0.0  , 0.0  , 0.0  , 0.0  , 0.0  , 0.0  , 0.0  , 0.0  , 0.0  , 0.0  , 0.0  , 0.0  , 0.0  , 0.0  , 0.0  , 0.0  , 0.0  , 0.0  , 0.0  , 0.0  , 0.0  , 0.0  , 0.0  , 0.0  , 0.0  , 0.0  , 0.0  , 0.0  , 0.0  , 0.0  , 0.0  , 0.0  , 0.0  , 0.0  , 0.0  , 0.0  , 0.0  , 0.02  , 0.1  , 0.22  , 0.26  , 0.26  , 0.25  , 0.23  , 0.22  , 0.0  , 0.0  , 0.0  , 0.0  , 0.0  , 0.0  , 0.0  , 0.0  , 0.0  , 0.0  , 0.0  , 0.0  , 0.0  , 0.0  , 0.0  , 0.0  , 0.0  , 0.0  , 0.0  , 0.0  , 0.0  , 0.0  , 0.0  , 0.0  , 0.0  , 0.0  , 0.0  , 0.0  , 0.0  , 0.0  , 0.0  , 0.0  , 0.0  , 0.0  , 0.0  , 0.0  , 0.0  , 0.0  , 0.0  , 0.0 );
                        kernels[4] = compute_kernel(x,   -0.0  , -0.01  , -0.02  , -0.07  , -0.08  , -0.13  , -0.14  , -0.14  , -0.15  , -0.14  , 0.0  , 0.0  , 0.0  , 0.0  , 0.0  , 0.0  , 0.0  , 0.0  , 0.0  , 0.0  , 0.0  , 0.0  , 0.0  , 0.0  , 0.0  , 0.0  , 0.0  , 0.0  , 0.0  , 0.0  , 0.0  , 0.0  , 0.0  , 0.0  , 0.0  , 0.0  , 0.0  , 0.0  , 0.0  , 0.0  , 0.0  , 0.0  , 0.0  , 0.0  , 0.0  , 0.0  , 0.0  , 0.0  , 0.0  , 0.0  , 0.01  , 0.04  , 0.09  , 0.24  , 0.31  , 0.35  , 0.35  , 0.36  , 0.36  , 0.35  , 0.0  , 0.0  , 0.0  , 0.0  , 0.0  , 0.0  , 0.0  , 0.0  , 0.0  , 0.0  , 0.0  , 0.0  , 0.0  , 0.0  , 0.0  , 0.0  , 0.0  , 0.0  , 0.0  , 0.0  , 0.0  , 0.0  , 0.0  , 0.0  , 0.0  , 0.0  , 0.0  , 0.0  , 0.0  , 0.0  , 0.0  , 0.0  , 0.0  , 0.0  , 0.0  , 0.0  , 0.0  , 0.0  , 0.0  , 0.0 );
                        kernels[5] = compute_kernel(x,   -0.0  , -0.0  , -0.0  , -0.0  , -0.0  , 0.0  , 0.0  , -0.0  , -0.01  , -0.02  , 0.0  , 0.02  , 0.04  , 0.06  , 0.08  , 0.0  , 0.0  , 0.0  , 0.0  , 0.0  , 0.0  , 0.0  , 0.0  , 0.0  , 0.0  , 0.0  , 0.0  , 0.0  , 0.0  , 0.0  , 0.0  , 0.0  , 0.0  , 0.0  , 0.0  , 0.0  , 0.0  , 0.0  , 0.0  , 0.0  , 0.0  , 0.0  , 0.0  , 0.0  , 0.0  , 0.0  , 0.0  , 0.0  , 0.0  , 0.0  , -0.0  , -0.01  , -0.0  , -0.01  , -0.01  , -0.01  , -0.01  , 0.01  , 0.12  , 0.22  , 0.24  , 0.24  , 0.24  , 0.23  , 0.22  , 0.0  , 0.0  , 0.0  , 0.0  , 0.0  , 0.0  , 0.0  , 0.0  , 0.0  , 0.0  , 0.0  , 0.0  , 0.0  , 0.0  , 0.0  , 0.0  , 0.0  , 0.0  , 0.0  , 0.0  , 0.0  , 0.0  , 0.0  , 0.0  , 0.0  , 0.0  , 0.0  , 0.0  , 0.0  , 0.0  , 0.0  , 0.0  , 0.0  , 0.0  , 0.0 );
                        kernels[6] = compute_kernel(x,   0.0  , 0.0  , 0.0  , 0.0  , 0.0  , 0.0  , 0.01  , 0.12  , 0.22  , 0.3  , 0.33  , 0.36  , 0.38  , 0.4  , 0.42  , 0.44  , 0.44  , 0.45  , 0.0  , 0.0  , 0.0  , 0.0  , 0.0  , 0.0  , 0.0  , 0.0  , 0.0  , 0.0  , 0.0  , 0.0  , 0.0  , 0.0  , 0.0  , 0.0  , 0.0  , 0.0  , 0.0  , 0.0  , 0.0  , 0.0  , 0.0  , 0.0  , 0.0  , 0.0  , 0.0  , 0.0  , 0.0  , 0.0  , 0.0  , 0.0  , -0.0  , 0.0  , 0.0  , -0.0  , -0.0  , 0.01  , 0.1  , 0.27  , 0.3  , 0.29  , 0.26  , 0.22  , 0.17  , 0.12  , 0.07  , 0.02  , -0.03  , -0.08  , 0.0  , 0.0  , 0.0  , 0.0  , 0.0  , 0.0  , 0.0  , 0.0  , 0.0  , 0.0  , 0.0  , 0.0  , 0.0  , 0.0  , 0.0  , 0.0  , 0.0  , 0.0  , 0.0  , 0.0  , 0.0  , 0.0  , 0.0  , 0.0  , 0.0  , 0.0  , 0.0  , 0.0  , 0.0  , 0.0  , 0.0  , 0.0 );
                        kernels[7] = compute_kernel(x,   -0.0  , 0.04  , 0.12  , 0.18  , 0.2  , 0.21  , 0.21  , 0.21  , 0.21  , 0.0  , 0.0  , 0.0  , 0.0  , 0.0  , 0.0  , 0.0  , 0.0  , 0.0  , 0.0  , 0.0  , 0.0  , 0.0  , 0.0  , 0.0  , 0.0  , 0.0  , 0.0  , 0.0  , 0.0  , 0.0  , 0.0  , 0.0  , 0.0  , 0.0  , 0.0  , 0.0  , 0.0  , 0.0  , 0.0  , 0.0  , 0.0  , 0.0  , 0.0  , 0.0  , 0.0  , 0.0  , 0.0  , 0.0  , 0.0  , 0.0  , 0.04  , 0.16  , 0.26  , 0.28  , 0.28  , 0.28  , 0.28  , 0.27  , 0.26  , 0.0  , 0.0  , 0.0  , 0.0  , 0.0  , 0.0  , 0.0  , 0.0  , 0.0  , 0.0  , 0.0  , 0.0  , 0.0  , 0.0  , 0.0  , 0.0  , 0.0  , 0.0  , 0.0  , 0.0  , 0.0  , 0.0  , 0.0  , 0.0  , 0.0  , 0.0  , 0.0  , 0.0  , 0.0  , 0.0  , 0.0  , 0.0  , 0.0  , 0.0  , 0.0  , 0.0  , 0.0  , 0.0  , 0.0  , 0.0  , 0.0 );
                        kernels[8] = compute_kernel(x,   0.0  , 0.0  , 0.01  , -0.02  , -0.06  , -0.07  , -0.1  , -0.12  , -0.15  , -0.18  , 0.0  , 0.0  , 0.0  , 0.0  , 0.0  , 0.0  , 0.0  , 0.0  , 0.0  , 0.0  , 0.0  , 0.0  , 0.0  , 0.0  , 0.0  , 0.0  , 0.0  , 0.0  , 0.0  , 0.0  , 0.0  , 0.0  , 0.0  , 0.0  , 0.0  , 0.0  , 0.0  , 0.0  , 0.0  , 0.0  , 0.0  , 0.0  , 0.0  , 0.0  , 0.0  , 0.0  , 0.0  , 0.0  , 0.0  , 0.0  , 0.0  , 0.05  , 0.12  , 0.23  , 0.23  , 0.23  , 0.22  , 0.2  , 0.19  , 0.17  , 0.0  , 0.0  , 0.0  , 0.0  , 0.0  , 0.0  , 0.0  , 0.0  , 0.0  , 0.0  , 0.0  , 0.0  , 0.0  , 0.0  , 0.0  , 0.0  , 0.0  , 0.0  , 0.0  , 0.0  , 0.0  , 0.0  , 0.0  , 0.0  , 0.0  , 0.0  , 0.0  , 0.0  , 0.0  , 0.0  , 0.0  , 0.0  , 0.0  , 0.0  , 0.0  , 0.0  , 0.0  , 0.0  , 0.0  , 0.0 );
                        kernels[9] = compute_kernel(x,   -0.0  , -0.01  , -0.01  , 0.02  , 0.03  , 0.06  , 0.0  , 0.0  , 0.0  , 0.0  , 0.0  , 0.0  , 0.0  , 0.0  , 0.0  , 0.0  , 0.0  , 0.0  , 0.0  , 0.0  , 0.0  , 0.0  , 0.0  , 0.0  , 0.0  , 0.0  , 0.0  , 0.0  , 0.0  , 0.0  , 0.0  , 0.0  , 0.0  , 0.0  , 0.0  , 0.0  , 0.0  , 0.0  , 0.0  , 0.0  , 0.0  , 0.0  , 0.0  , 0.0  , 0.0  , 0.0  , 0.0  , 0.0  , 0.0  , 0.0  , 0.02  , 0.1  , 0.2  , 0.24  , 0.24  , 0.22  , 0.0  , 0.0  , 0.0  , 0.0  , 0.0  , 0.0  , 0.0  , 0.0  , 0.0  , 0.0  , 0.0  , 0.0  , 0.0  , 0.0  , 0.0  , 0.0  , 0.0  , 0.0  , 0.0  , 0.0  , 0.0  , 0.0  , 0.0  , 0.0  , 0.0  , 0.0  , 0.0  , 0.0  , 0.0  , 0.0  , 0.0  , 0.0  , 0.0  , 0.0  , 0.0  , 0.0  , 0.0  , 0.0  , 0.0  , 0.0  , 0.0  , 0.0  , 0.0  , 0.0 );
                        kernels[10] = compute_kernel(x,   0.0  , 0.0  , -0.0  , -0.0  , 0.01  , 0.03  , 0.06  , 0.08  , 0.13  , 0.18  , 0.24  , 0.29  , 0.0  , 0.0  , 0.0  , 0.0  , 0.0  , 0.0  , 0.0  , 0.0  , 0.0  , 0.0  , 0.0  , 0.0  , 0.0  , 0.0  , 0.0  , 0.0  , 0.0  , 0.0  , 0.0  , 0.0  , 0.0  , 0.0  , 0.0  , 0.0  , 0.0  , 0.0  , 0.0  , 0.0  , 0.0  , 0.0  , 0.0  , 0.0  , 0.0  , 0.0  , 0.0  , 0.0  , 0.0  , 0.0  , -0.0  , -0.0  , -0.01  , -0.0  , 0.04  , 0.16  , 0.25  , 0.22  , 0.16  , 0.1  , 0.03  , -0.04  , 0.0  , 0.0  , 0.0  , 0.0  , 0.0  , 0.0  , 0.0  , 0.0  , 0.0  , 0.0  , 0.0  , 0.0  , 0.0  , 0.0  , 0.0  , 0.0  , 0.0  , 0.0  , 0.0  , 0.0  , 0.0  , 0.0  , 0.0  , 0.0  , 0.0  , 0.0  , 0.0  , 0.0  , 0.0  , 0.0  , 0.0  , 0.0  , 0.0  , 0.0  , 0.0  , 0.0  , 0.0  , 0.0 );
                        kernels[11] = compute_kernel(x,   0.03  , 0.05  , 0.08  , 0.09  , 0.11  , 0.12  , 0.0  , 0.0  , 0.0  , 0.0  , 0.0  , 0.0  , 0.0  , 0.0  , 0.0  , 0.0  , 0.0  , 0.0  , 0.0  , 0.0  , 0.0  , 0.0  , 0.0  , 0.0  , 0.0  , 0.0  , 0.0  , 0.0  , 0.0  , 0.0  , 0.0  , 0.0  , 0.0  , 0.0  , 0.0  , 0.0  , 0.0  , 0.0  , 0.0  , 0.0  , 0.0  , 0.0  , 0.0  , 0.0  , 0.0  , 0.0  , 0.0  , 0.0  , 0.0  , 0.0  , 0.06  , -0.02  , -0.14  , -0.27  , -0.4  , -0.54  , 0.0  , 0.0  , 0.0  , 0.0  , 0.0  , 0.0  , 0.0  , 0.0  , 0.0  , 0.0  , 0.0  , 0.0  , 0.0  , 0.0  , 0.0  , 0.0  , 0.0  , 0.0  , 0.0  , 0.0  , 0.0  , 0.0  , 0.0  , 0.0  , 0.0  , 0.0  , 0.0  , 0.0  , 0.0  , 0.0  , 0.0  , 0.0  , 0.0  , 0.0  , 0.0  , 0.0  , 0.0  , 0.0  , 0.0  , 0.0  , 0.0  , 0.0  , 0.0  , 0.0 );
                        kernels[12] = compute_kernel(x,   0.0  , -0.0  , -0.0  , -0.01  , 0.0  , 0.1  , 0.13  , 0.14  , 0.13  , 0.13  , 0.13  , 0.0  , 0.0  , 0.0  , 0.0  , 0.0  , 0.0  , 0.0  , 0.0  , 0.0  , 0.0  , 0.0  , 0.0  , 0.0  , 0.0  , 0.0  , 0.0  , 0.0  , 0.0  , 0.0  , 0.0  , 0.0  , 0.0  , 0.0  , 0.0  , 0.0  , 0.0  , 0.0  , 0.0  , 0.0  , 0.0  , 0.0  , 0.0  , 0.0  , 0.0  , 0.0  , 0.0  , 0.0  , 0.0  , 0.0  , -0.0  , -0.0  , -0.0  , 0.02  , 0.13  , 0.23  , 0.22  , 0.2  , 0.17  , 0.14  , 0.11  , 0.0  , 0.0  , 0.0  , 0.0  , 0.0  , 0.0  , 0.0  , 0.0  , 0.0  , 0.0  , 0.0  , 0.0  , 0.0  , 0.0  , 0.0  , 0.0  , 0.0  , 0.0  , 0.0  , 0.0  , 0.0  , 0.0  , 0.0  , 0.0  , 0.0  , 0.0  , 0.0  , 0.0  , 0.0  , 0.0  , 0.0  , 0.0  , 0.0  , 0.0  , 0.0  , 0.0  , 0.0  , 0.0  , 0.0 );
                        kernels[13] = compute_kernel(x,   0.0  , 0.0  , 0.0  , 0.0  , -0.02  , -0.06  , -0.1  , -0.12  , -0.14  , -0.14  , -0.14  , -0.13  , -0.12  , 0.0  , 0.0  , 0.0  , 0.0  , 0.0  , 0.0  , 0.0  , 0.0  , 0.0  , 0.0  , 0.0  , 0.0  , 0.0  , 0.0  , 0.0  , 0.0  , 0.0  , 0.0  , 0.0  , 0.0  , 0.0  , 0.0  , 0.0  , 0.0  , 0.0  , 0.0  , 0.0  , 0.0  , 0.0  , 0.0  , 0.0  , 0.0  , 0.0  , 0.0  , 0.0  , 0.0  , 0.0  , 0.0  , 0.01  , 0.06  , 0.12  , 0.28  , 0.38  , 0.45  , 0.47  , 0.49  , 0.5  , 0.51  , 0.52  , 0.52  , 0.0  , 0.0  , 0.0  , 0.0  , 0.0  , 0.0  , 0.0  , 0.0  , 0.0  , 0.0  , 0.0  , 0.0  , 0.0  , 0.0  , 0.0  , 0.0  , 0.0  , 0.0  , 0.0  , 0.0  , 0.0  , 0.0  , 0.0  , 0.0  , 0.0  , 0.0  , 0.0  , 0.0  , 0.0  , 0.0  , 0.0  , 0.0  , 0.0  , 0.0  , 0.0  , 0.0  , 0.0 );
                        kernels[14] = compute_kernel(x,   -0.01  , -0.03  , -0.03  , -0.01  , 0.02  , 0.04  , 0.06  , 0.09  , 0.0  , 0.0  , 0.0  , 0.0  , 0.0  , 0.0  , 0.0  , 0.0  , 0.0  , 0.0  , 0.0  , 0.0  , 0.0  , 0.0  , 0.0  , 0.0  , 0.0  , 0.0  , 0.0  , 0.0  , 0.0  , 0.0  , 0.0  , 0.0  , 0.0  , 0.0  , 0.0  , 0.0  , 0.0  , 0.0  , 0.0  , 0.0  , 0.0  , 0.0  , 0.0  , 0.0  , 0.0  , 0.0  , 0.0  , 0.0  , 0.0  , 0.0  , 0.03  , 0.08  , 0.21  , 0.25  , 0.27  , 0.25  , 0.24  , 0.22  , 0.0  , 0.0  , 0.0  , 0.0  , 0.0  , 0.0  , 0.0  , 0.0  , 0.0  , 0.0  , 0.0  , 0.0  , 0.0  , 0.0  , 0.0  , 0.0  , 0.0  , 0.0  , 0.0  , 0.0  , 0.0  , 0.0  , 0.0  , 0.0  , 0.0  , 0.0  , 0.0  , 0.0  , 0.0  , 0.0  , 0.0  , 0.0  , 0.0  , 0.0  , 0.0  , 0.0  , 0.0  , 0.0  , 0.0  , 0.0  , 0.0  , 0.0 );
                        kernels[15] = compute_kernel(x,   -0.0  , -0.0  , 0.01  , 0.01  , -0.0  , -0.02  , 0.0  , 0.0  , 0.0  , 0.0  , 0.0  , 0.0  , 0.0  , 0.0  , 0.0  , 0.0  , 0.0  , 0.0  , 0.0  , 0.0  , 0.0  , 0.0  , 0.0  , 0.0  , 0.0  , 0.0  , 0.0  , 0.0  , 0.0  , 0.0  , 0.0  , 0.0  , 0.0  , 0.0  , 0.0  , 0.0  , 0.0  , 0.0  , 0.0  , 0.0  , 0.0  , 0.0  , 0.0  , 0.0  , 0.0  , 0.0  , 0.0  , 0.0  , 0.0  , 0.0  , -0.0  , -0.0  , -0.0  , 0.08  , 0.17  , 0.23  , 0.0  , 0.0  , 0.0  , 0.0  , 0.0  , 0.0  , 0.0  , 0.0  , 0.0  , 0.0  , 0.0  , 0.0  , 0.0  , 0.0  , 0.0  , 0.0  , 0.0  , 0.0  , 0.0  , 0.0  , 0.0  , 0.0  , 0.0  , 0.0  , 0.0  , 0.0  , 0.0  , 0.0  , 0.0  , 0.0  , 0.0  , 0.0  , 0.0  , 0.0  , 0.0  , 0.0  , 0.0  , 0.0  , 0.0  , 0.0  , 0.0  , 0.0  , 0.0  , 0.0 );
                        kernels[16] = compute_kernel(x,   -0.02  , -0.07  , -0.07  , -0.07  , -0.07  , -0.06  , -0.06  , 0.0  , 0.0  , 0.0  , 0.0  , 0.0  , 0.0  , 0.0  , 0.0  , 0.0  , 0.0  , 0.0  , 0.0  , 0.0  , 0.0  , 0.0  , 0.0  , 0.0  , 0.0  , 0.0  , 0.0  , 0.0  , 0.0  , 0.0  , 0.0  , 0.0  , 0.0  , 0.0  , 0.0  , 0.0  , 0.0  , 0.0  , 0.0  , 0.0  , 0.0  , 0.0  , 0.0  , 0.0  , 0.0  , 0.0  , 0.0  , 0.0  , 0.0  , 0.0  , 0.05  , 0.17  , 0.17  , 0.15  , 0.12  , 0.08  , 0.03  , 0.0  , 0.0  , 0.0  , 0.0  , 0.0  , 0.0  , 0.0  , 0.0  , 0.0  , 0.0  , 0.0  , 0.0  , 0.0  , 0.0  , 0.0  , 0.0  , 0.0  , 0.0  , 0.0  , 0.0  , 0.0  , 0.0  , 0.0  , 0.0  , 0.0  , 0.0  , 0.0  , 0.0  , 0.0  , 0.0  , 0.0  , 0.0  , 0.0  , 0.0  , 0.0  , 0.0  , 0.0  , 0.0  , 0.0  , 0.0  , 0.0  , 0.0  , 0.0 );
                        kernels[17] = compute_kernel(x,   0.04  , 0.08  , 0.11  , 0.14  , 0.18  , 0.22  , 0.0  , 0.0  , 0.0  , 0.0  , 0.0  , 0.0  , 0.0  , 0.0  , 0.0  , 0.0  , 0.0  , 0.0  , 0.0  , 0.0  , 0.0  , 0.0  , 0.0  , 0.0  , 0.0  , 0.0  , 0.0  , 0.0  , 0.0  , 0.0  , 0.0  , 0.0  , 0.0  , 0.0  , 0.0  , 0.0  , 0.0  , 0.0  , 0.0  , 0.0  , 0.0  , 0.0  , 0.0  , 0.0  , 0.0  , 0.0  , 0.0  , 0.0  , 0.0  , 0.0  , -0.05  , -0.15  , -0.28  , -0.42  , -0.56  , -0.7  , 0.0  , 0.0  , 0.0  , 0.0  , 0.0  , 0.0  , 0.0  , 0.0  , 0.0  , 0.0  , 0.0  , 0.0  , 0.0  , 0.0  , 0.0  , 0.0  , 0.0  , 0.0  , 0.0  , 0.0  , 0.0  , 0.0  , 0.0  , 0.0  , 0.0  , 0.0  , 0.0  , 0.0  , 0.0  , 0.0  , 0.0  , 0.0  , 0.0  , 0.0  , 0.0  , 0.0  , 0.0  , 0.0  , 0.0  , 0.0  , 0.0  , 0.0  , 0.0  , 0.0 );
                        kernels[18] = compute_kernel(x,   0.0  , 0.0  , 0.0  , 0.0  , 0.0  , -0.0  , 0.0  , 0.06  , 0.14  , 0.19  , 0.21  , 0.22  , 0.22  , 0.23  , 0.24  , 0.24  , 0.24  , 0.0  , 0.0  , 0.0  , 0.0  , 0.0  , 0.0  , 0.0  , 0.0  , 0.0  , 0.0  , 0.0  , 0.0  , 0.0  , 0.0  , 0.0  , 0.0  , 0.0  , 0.0  , 0.0  , 0.0  , 0.0  , 0.0  , 0.0  , 0.0  , 0.0  , 0.0  , 0.0  , 0.0  , 0.0  , 0.0  , 0.0  , 0.0  , 0.0  , -0.0  , -0.0  , -0.0  , -0.0  , -0.0  , 0.01  , 0.08  , 0.22  , 0.31  , 0.35  , 0.37  , 0.38  , 0.38  , 0.38  , 0.38  , 0.38  , 0.38  , 0.0  , 0.0  , 0.0  , 0.0  , 0.0  , 0.0  , 0.0  , 0.0  , 0.0  , 0.0  , 0.0  , 0.0  , 0.0  , 0.0  , 0.0  , 0.0  , 0.0  , 0.0  , 0.0  , 0.0  , 0.0  , 0.0  , 0.0  , 0.0  , 0.0  , 0.0  , 0.0  , 0.0  , 0.0  , 0.0  , 0.0  , 0.0  , 0.0 );
                        kernels[19] = compute_kernel(x,   0.0  , 0.0  , 0.0  , 0.0  , -0.0  , -0.0  , -0.0  , -0.02  , -0.01  , -0.01  , 0.01  , 0.03  , 0.0  , 0.0  , 0.0  , 0.0  , 0.0  , 0.0  , 0.0  , 0.0  , 0.0  , 0.0  , 0.0  , 0.0  , 0.0  , 0.0  , 0.0  , 0.0  , 0.0  , 0.0  , 0.0  , 0.0  , 0.0  , 0.0  , 0.0  , 0.0  , 0.0  , 0.0  , 0.0  , 0.0  , 0.0  , 0.0  , 0.0  , 0.0  , 0.0  , 0.0  , 0.0  , 0.0  , 0.0  , 0.0  , -0.0  , -0.0  , -0.0  , -0.0  , 0.0  , 0.03  , 0.09  , 0.22  , 0.25  , 0.27  , 0.28  , 0.28  , 0.0  , 0.0  , 0.0  , 0.0  , 0.0  , 0.0  , 0.0  , 0.0  , 0.0  , 0.0  , 0.0  , 0.0  , 0.0  , 0.0  , 0.0  , 0.0  , 0.0  , 0.0  , 0.0  , 0.0  , 0.0  , 0.0  , 0.0  , 0.0  , 0.0  , 0.0  , 0.0  , 0.0  , 0.0  , 0.0  , 0.0  , 0.0  , 0.0  , 0.0  , 0.0  , 0.0  , 0.0  , 0.0 );
                        kernels[20] = compute_kernel(x,   0.0  , 0.0  , 0.0  , -0.0  , -0.01  , -0.03  , -0.08  , -0.12  , -0.17  , -0.19  , -0.19  , -0.19  , -0.17  , -0.16  , 0.0  , 0.0  , 0.0  , 0.0  , 0.0  , 0.0  , 0.0  , 0.0  , 0.0  , 0.0  , 0.0  , 0.0  , 0.0  , 0.0  , 0.0  , 0.0  , 0.0  , 0.0  , 0.0  , 0.0  , 0.0  , 0.0  , 0.0  , 0.0  , 0.0  , 0.0  , 0.0  , 0.0  , 0.0  , 0.0  , 0.0  , 0.0  , 0.0  , 0.0  , 0.0  , 0.0  , 0.0  , 0.0  , 0.01  , 0.04  , 0.11  , 0.24  , 0.37  , 0.44  , 0.47  , 0.48  , 0.49  , 0.48  , 0.48  , 0.47  , 0.0  , 0.0  , 0.0  , 0.0  , 0.0  , 0.0  , 0.0  , 0.0  , 0.0  , 0.0  , 0.0  , 0.0  , 0.0  , 0.0  , 0.0  , 0.0  , 0.0  , 0.0  , 0.0  , 0.0  , 0.0  , 0.0  , 0.0  , 0.0  , 0.0  , 0.0  , 0.0  , 0.0  , 0.0  , 0.0  , 0.0  , 0.0  , 0.0  , 0.0  , 0.0  , 0.0 );
                        kernels[21] = compute_kernel(x,   0.0  , 0.0  , 0.0  , 0.0  , 0.0  , 0.0  , 0.0  , 0.0  , 0.01  , -0.03  , -0.12  , -0.15  , -0.2  , -0.21  , -0.22  , -0.23  , -0.24  , -0.25  , 0.0  , 0.0  , 0.0  , 0.0  , 0.0  , 0.0  , 0.0  , 0.0  , 0.0  , 0.0  , 0.0  , 0.0  , 0.0  , 0.0  , 0.0  , 0.0  , 0.0  , 0.0  , 0.0  , 0.0  , 0.0  , 0.0  , 0.0  , 0.0  , 0.0  , 0.0  , 0.0  , 0.0  , 0.0  , 0.0  , 0.0  , 0.0  , 0.0  , 0.0  , 0.01  , 0.01  , 0.01  , 0.01  , 0.01  , 0.02  , 0.08  , 0.26  , 0.36  , 0.38  , 0.37  , 0.36  , 0.35  , 0.33  , 0.32  , 0.3  , 0.0  , 0.0  , 0.0  , 0.0  , 0.0  , 0.0  , 0.0  , 0.0  , 0.0  , 0.0  , 0.0  , 0.0  , 0.0  , 0.0  , 0.0  , 0.0  , 0.0  , 0.0  , 0.0  , 0.0  , 0.0  , 0.0  , 0.0  , 0.0  , 0.0  , 0.0  , 0.0  , 0.0  , 0.0  , 0.0  , 0.0  , 0.0 );
                        kernels[22] = compute_kernel(x,   -0.0  , -0.02  , -0.02  , -0.01  , -0.01  , 0.01  , 0.02  , 0.05  , 0.0  , 0.0  , 0.0  , 0.0  , 0.0  , 0.0  , 0.0  , 0.0  , 0.0  , 0.0  , 0.0  , 0.0  , 0.0  , 0.0  , 0.0  , 0.0  , 0.0  , 0.0  , 0.0  , 0.0  , 0.0  , 0.0  , 0.0  , 0.0  , 0.0  , 0.0  , 0.0  , 0.0  , 0.0  , 0.0  , 0.0  , 0.0  , 0.0  , 0.0  , 0.0  , 0.0  , 0.0  , 0.0  , 0.0  , 0.0  , 0.0  , 0.0  , 0.04  , 0.11  , 0.17  , 0.2  , 0.21  , 0.21  , 0.2  , 0.18  , 0.0  , 0.0  , 0.0  , 0.0  , 0.0  , 0.0  , 0.0  , 0.0  , 0.0  , 0.0  , 0.0  , 0.0  , 0.0  , 0.0  , 0.0  , 0.0  , 0.0  , 0.0  , 0.0  , 0.0  , 0.0  , 0.0  , 0.0  , 0.0  , 0.0  , 0.0  , 0.0  , 0.0  , 0.0  , 0.0  , 0.0  , 0.0  , 0.0  , 0.0  , 0.0  , 0.0  , 0.0  , 0.0  , 0.0  , 0.0  , 0.0  , 0.0 );
                        kernels[23] = compute_kernel(x,   -0.0  , -0.0  , 0.0  , 0.0  , 0.0  , -0.0  , -0.02  , -0.07  , -0.11  , -0.13  , -0.12  , -0.11  , -0.09  , -0.07  , 0.0  , 0.0  , 0.0  , 0.0  , 0.0  , 0.0  , 0.0  , 0.0  , 0.0  , 0.0  , 0.0  , 0.0  , 0.0  , 0.0  , 0.0  , 0.0  , 0.0  , 0.0  , 0.0  , 0.0  , 0.0  , 0.0  , 0.0  , 0.0  , 0.0  , 0.0  , 0.0  , 0.0  , 0.0  , 0.0  , 0.0  , 0.0  , 0.0  , 0.0  , 0.0  , 0.0  , 0.0  , -0.0  , -0.0  , -0.0  , -0.0  , 0.03  , 0.09  , 0.23  , 0.25  , 0.24  , 0.22  , 0.2  , 0.17  , 0.15  , 0.0  , 0.0  , 0.0  , 0.0  , 0.0  , 0.0  , 0.0  , 0.0  , 0.0  , 0.0  , 0.0  , 0.0  , 0.0  , 0.0  , 0.0  , 0.0  , 0.0  , 0.0  , 0.0  , 0.0  , 0.0  , 0.0  , 0.0  , 0.0  , 0.0  , 0.0  , 0.0  , 0.0  , 0.0  , 0.0  , 0.0  , 0.0  , 0.0  , 0.0  , 0.0  , 0.0 );
                        kernels[24] = compute_kernel(x,   -0.0  , -0.0  , 0.0  , 0.0  , 0.03  , 0.15  , 0.18  , 0.18  , 0.17  , 0.16  , 0.0  , 0.0  , 0.0  , 0.0  , 0.0  , 0.0  , 0.0  , 0.0  , 0.0  , 0.0  , 0.0  , 0.0  , 0.0  , 0.0  , 0.0  , 0.0  , 0.0  , 0.0  , 0.0  , 0.0  , 0.0  , 0.0  , 0.0  , 0.0  , 0.0  , 0.0  , 0.0  , 0.0  , 0.0  , 0.0  , 0.0  , 0.0  , 0.0  , 0.0  , 0.0  , 0.0  , 0.0  , 0.0  , 0.0  , 0.0  , -0.0  , -0.0  , 0.01  , 0.06  , 0.16  , 0.26  , 0.26  , 0.26  , 0.25  , 0.23  , 0.0  , 0.0  , 0.0  , 0.0  , 0.0  , 0.0  , 0.0  , 0.0  , 0.0  , 0.0  , 0.0  , 0.0  , 0.0  , 0.0  , 0.0  , 0.0  , 0.0  , 0.0  , 0.0  , 0.0  , 0.0  , 0.0  , 0.0  , 0.0  , 0.0  , 0.0  , 0.0  , 0.0  , 0.0  , 0.0  , 0.0  , 0.0  , 0.0  , 0.0  , 0.0  , 0.0  , 0.0  , 0.0  , 0.0  , 0.0 );
                        kernels[25] = compute_kernel(x,   0.0  , 0.0  , 0.0  , -0.0  , -0.0  , -0.01  , 0.02  , 0.01  , 0.02  , 0.02  , 0.03  , 0.04  , 0.04  , 0.0  , 0.0  , 0.0  , 0.0  , 0.0  , 0.0  , 0.0  , 0.0  , 0.0  , 0.0  , 0.0  , 0.0  , 0.0  , 0.0  , 0.0  , 0.0  , 0.0  , 0.0  , 0.0  , 0.0  , 0.0  , 0.0  , 0.0  , 0.0  , 0.0  , 0.0  , 0.0  , 0.0  , 0.0  , 0.0  , 0.0  , 0.0  , 0.0  , 0.0  , 0.0  , 0.0  , 0.0  , -0.0  , -0.0  , -0.0  , -0.0  , -0.0  , 0.01  , 0.11  , 0.21  , 0.24  , 0.22  , 0.21  , 0.19  , 0.17  , 0.0  , 0.0  , 0.0  , 0.0  , 0.0  , 0.0  , 0.0  , 0.0  , 0.0  , 0.0  , 0.0  , 0.0  , 0.0  , 0.0  , 0.0  , 0.0  , 0.0  , 0.0  , 0.0  , 0.0  , 0.0  , 0.0  , 0.0  , 0.0  , 0.0  , 0.0  , 0.0  , 0.0  , 0.0  , 0.0  , 0.0  , 0.0  , 0.0  , 0.0  , 0.0  , 0.0  , 0.0 );
                        kernels[26] = compute_kernel(x,   0.0  , 0.01  , 0.01  , 0.02  , 0.02  , 0.03  , 0.02  , 0.0  , -0.03  , -0.09  , -0.13  , -0.17  , -0.19  , -0.2  , 0.0  , 0.0  , 0.0  , 0.0  , 0.0  , 0.0  , 0.0  , 0.0  , 0.0  , 0.0  , 0.0  , 0.0  , 0.0  , 0.0  , 0.0  , 0.0  , 0.0  , 0.0  , 0.0  , 0.0  , 0.0  , 0.0  , 0.0  , 0.0  , 0.0  , 0.0  , 0.0  , 0.0  , 0.0  , 0.0  , 0.0  , 0.0  , 0.0  , 0.0  , 0.0  , 0.0  , 0.0  , 0.01  , 0.02  , 0.04  , 0.08  , 0.13  , 0.21  , 0.3  , 0.41  , 0.49  , 0.54  , 0.58  , 0.59  , 0.59  , 0.0  , 0.0  , 0.0  , 0.0  , 0.0  , 0.0  , 0.0  , 0.0  , 0.0  , 0.0  , 0.0  , 0.0  , 0.0  , 0.0  , 0.0  , 0.0  , 0.0  , 0.0  , 0.0  , 0.0  , 0.0  , 0.0  , 0.0  , 0.0  , 0.0  , 0.0  , 0.0  , 0.0  , 0.0  , 0.0  , 0.0  , 0.0  , 0.0  , 0.0  , 0.0  , 0.0 );
                        kernels[27] = compute_kernel(x,   -0.0  , -0.0  , -0.01  , -0.01  , -0.01  , -0.01  , -0.03  , -0.05  , -0.14  , -0.18  , -0.2  , -0.22  , -0.23  , -0.24  , -0.24  , -0.25  , 0.0  , 0.0  , 0.0  , 0.0  , 0.0  , 0.0  , 0.0  , 0.0  , 0.0  , 0.0  , 0.0  , 0.0  , 0.0  , 0.0  , 0.0  , 0.0  , 0.0  , 0.0  , 0.0  , 0.0  , 0.0  , 0.0  , 0.0  , 0.0  , 0.0  , 0.0  , 0.0  , 0.0  , 0.0  , 0.0  , 0.0  , 0.0  , 0.0  , 0.0  , 0.0  , 0.0  , 0.0  , 0.0  , 0.01  , 0.01  , 0.05  , 0.15  , 0.34  , 0.35  , 0.36  , 0.34  , 0.33  , 0.31  , 0.29  , 0.27  , 0.0  , 0.0  , 0.0  , 0.0  , 0.0  , 0.0  , 0.0  , 0.0  , 0.0  , 0.0  , 0.0  , 0.0  , 0.0  , 0.0  , 0.0  , 0.0  , 0.0  , 0.0  , 0.0  , 0.0  , 0.0  , 0.0  , 0.0  , 0.0  , 0.0  , 0.0  , 0.0  , 0.0  , 0.0  , 0.0  , 0.0  , 0.0  , 0.0  , 0.0 );
                        kernels[28] = compute_kernel(x,   0.0  , 0.04  , 0.2  , 0.26  , 0.3  , 0.29  , 0.3  , 0.31  , 0.33  , 0.0  , 0.0  , 0.0  , 0.0  , 0.0  , 0.0  , 0.0  , 0.0  , 0.0  , 0.0  , 0.0  , 0.0  , 0.0  , 0.0  , 0.0  , 0.0  , 0.0  , 0.0  , 0.0  , 0.0  , 0.0  , 0.0  , 0.0  , 0.0  , 0.0  , 0.0  , 0.0  , 0.0  , 0.0  , 0.0  , 0.0  , 0.0  , 0.0  , 0.0  , 0.0  , 0.0  , 0.0  , 0.0  , 0.0  , 0.0  , 0.0  , 0.06  , 0.17  , 0.28  , 0.29  , 0.29  , 0.29  , 0.31  , 0.32  , 0.33  , 0.0  , 0.0  , 0.0  , 0.0  , 0.0  , 0.0  , 0.0  , 0.0  , 0.0  , 0.0  , 0.0  , 0.0  , 0.0  , 0.0  , 0.0  , 0.0  , 0.0  , 0.0  , 0.0  , 0.0  , 0.0  , 0.0  , 0.0  , 0.0  , 0.0  , 0.0  , 0.0  , 0.0  , 0.0  , 0.0  , 0.0  , 0.0  , 0.0  , 0.0  , 0.0  , 0.0  , 0.0  , 0.0  , 0.0  , 0.0  , 0.0 );
                        kernels[29] = compute_kernel(x,   0.03  , 0.16  , 0.28  , 0.35  , 0.39  , 0.42  , 0.46  , 0.5  , 0.0  , 0.0  , 0.0  , 0.0  , 0.0  , 0.0  , 0.0  , 0.0  , 0.0  , 0.0  , 0.0  , 0.0  , 0.0  , 0.0  , 0.0  , 0.0  , 0.0  , 0.0  , 0.0  , 0.0  , 0.0  , 0.0  , 0.0  , 0.0  , 0.0  , 0.0  , 0.0  , 0.0  , 0.0  , 0.0  , 0.0  , 0.0  , 0.0  , 0.0  , 0.0  , 0.0  , 0.0  , 0.0  , 0.0  , 0.0  , 0.0  , 0.0  , 0.08  , 0.15  , 0.15  , 0.11  , 0.07  , 0.03  , -0.01  , -0.05  , 0.0  , 0.0  , 0.0  , 0.0  , 0.0  , 0.0  , 0.0  , 0.0  , 0.0  , 0.0  , 0.0  , 0.0  , 0.0  , 0.0  , 0.0  , 0.0  , 0.0  , 0.0  , 0.0  , 0.0  , 0.0  , 0.0  , 0.0  , 0.0  , 0.0  , 0.0  , 0.0  , 0.0  , 0.0  , 0.0  , 0.0  , 0.0  , 0.0  , 0.0  , 0.0  , 0.0  , 0.0  , 0.0  , 0.0  , 0.0  , 0.0  , 0.0 );
                        kernels[30] = compute_kernel(x,   0.0  , 0.0  , 0.0  , 0.0  , 0.0  , 0.0  , 0.0  , 0.0  , 0.0  , 0.0  , -0.01  , -0.01  , 0.04  , 0.09  , 0.13  , 0.14  , 0.16  , 0.18  , 0.2  , 0.0  , 0.0  , 0.0  , 0.0  , 0.0  , 0.0  , 0.0  , 0.0  , 0.0  , 0.0  , 0.0  , 0.0  , 0.0  , 0.0  , 0.0  , 0.0  , 0.0  , 0.0  , 0.0  , 0.0  , 0.0  , 0.0  , 0.0  , 0.0  , 0.0  , 0.0  , 0.0  , 0.0  , 0.0  , 0.0  , 0.0  , 0.0  , 0.0  , 0.0  , 0.0  , 0.0  , -0.0  , -0.0  , -0.0  , -0.0  , 0.0  , 0.03  , 0.12  , 0.24  , 0.26  , 0.25  , 0.24  , 0.22  , 0.21  , 0.19  , 0.0  , 0.0  , 0.0  , 0.0  , 0.0  , 0.0  , 0.0  , 0.0  , 0.0  , 0.0  , 0.0  , 0.0  , 0.0  , 0.0  , 0.0  , 0.0  , 0.0  , 0.0  , 0.0  , 0.0  , 0.0  , 0.0  , 0.0  , 0.0  , 0.0  , 0.0  , 0.0  , 0.0  , 0.0  , 0.0  , 0.0 );
                        kernels[31] = compute_kernel(x,   -0.0  , -0.0  , -0.0  , -0.0  , -0.01  , -0.01  , 0.11  , 0.21  , 0.26  , 0.27  , 0.29  , 0.3  , 0.32  , 0.32  , 0.0  , 0.0  , 0.0  , 0.0  , 0.0  , 0.0  , 0.0  , 0.0  , 0.0  , 0.0  , 0.0  , 0.0  , 0.0  , 0.0  , 0.0  , 0.0  , 0.0  , 0.0  , 0.0  , 0.0  , 0.0  , 0.0  , 0.0  , 0.0  , 0.0  , 0.0  , 0.0  , 0.0  , 0.0  , 0.0  , 0.0  , 0.0  , 0.0  , 0.0  , 0.0  , 0.0  , 0.0  , 0.0  , -0.0  , 0.0  , 0.04  , 0.17  , 0.29  , 0.33  , 0.32  , 0.31  , 0.29  , 0.27  , 0.25  , 0.23  , 0.0  , 0.0  , 0.0  , 0.0  , 0.0  , 0.0  , 0.0  , 0.0  , 0.0  , 0.0  , 0.0  , 0.0  , 0.0  , 0.0  , 0.0  , 0.0  , 0.0  , 0.0  , 0.0  , 0.0  , 0.0  , 0.0  , 0.0  , 0.0  , 0.0  , 0.0  , 0.0  , 0.0  , 0.0  , 0.0  , 0.0  , 0.0  , 0.0  , 0.0  , 0.0  , 0.0 );
                        kernels[32] = compute_kernel(x,   -0.0  , -0.0  , 0.0  , 0.01  , -0.0  , -0.1  , -0.11  , -0.11  , -0.1  , -0.1  , 0.0  , 0.0  , 0.0  , 0.0  , 0.0  , 0.0  , 0.0  , 0.0  , 0.0  , 0.0  , 0.0  , 0.0  , 0.0  , 0.0  , 0.0  , 0.0  , 0.0  , 0.0  , 0.0  , 0.0  , 0.0  , 0.0  , 0.0  , 0.0  , 0.0  , 0.0  , 0.0  , 0.0  , 0.0  , 0.0  , 0.0  , 0.0  , 0.0  , 0.0  , 0.0  , 0.0  , 0.0  , 0.0  , 0.0  , 0.0  , -0.0  , -0.0  , -0.01  , -0.05  , -0.14  , -0.23  , -0.25  , -0.24  , -0.21  , -0.19  , 0.0  , 0.0  , 0.0  , 0.0  , 0.0  , 0.0  , 0.0  , 0.0  , 0.0  , 0.0  , 0.0  , 0.0  , 0.0  , 0.0  , 0.0  , 0.0  , 0.0  , 0.0  , 0.0  , 0.0  , 0.0  , 0.0  , 0.0  , 0.0  , 0.0  , 0.0  , 0.0  , 0.0  , 0.0  , 0.0  , 0.0  , 0.0  , 0.0  , 0.0  , 0.0  , 0.0  , 0.0  , 0.0  , 0.0  , 0.0 );
                        kernels[33] = compute_kernel(x,   0.0  , -0.0  , -0.0  , -0.0  , -0.03  , -0.09  , -0.14  , -0.14  , -0.13  , -0.11  , 0.0  , 0.0  , 0.0  , 0.0  , 0.0  , 0.0  , 0.0  , 0.0  , 0.0  , 0.0  , 0.0  , 0.0  , 0.0  , 0.0  , 0.0  , 0.0  , 0.0  , 0.0  , 0.0  , 0.0  , 0.0  , 0.0  , 0.0  , 0.0  , 0.0  , 0.0  , 0.0  , 0.0  , 0.0  , 0.0  , 0.0  , 0.0  , 0.0  , 0.0  , 0.0  , 0.0  , 0.0  , 0.0  , 0.0  , 0.0  , -0.0  , -0.0  , -0.01  , -0.04  , -0.11  , -0.22  , -0.26  , -0.28  , -0.28  , -0.28  , 0.0  , 0.0  , 0.0  , 0.0  , 0.0  , 0.0  , 0.0  , 0.0  , 0.0  , 0.0  , 0.0  , 0.0  , 0.0  , 0.0  , 0.0  , 0.0  , 0.0  , 0.0  , 0.0  , 0.0  , 0.0  , 0.0  , 0.0  , 0.0  , 0.0  , 0.0  , 0.0  , 0.0  , 0.0  , 0.0  , 0.0  , 0.0  , 0.0  , 0.0  , 0.0  , 0.0  , 0.0  , 0.0  , 0.0  , 0.0 );
                        kernels[34] = compute_kernel(x,   0.0  , 0.04  , 0.13  , 0.2  , 0.18  , 0.2  , 0.17  , 0.13  , 0.1  , 0.06  , 0.0  , 0.0  , 0.0  , 0.0  , 0.0  , 0.0  , 0.0  , 0.0  , 0.0  , 0.0  , 0.0  , 0.0  , 0.0  , 0.0  , 0.0  , 0.0  , 0.0  , 0.0  , 0.0  , 0.0  , 0.0  , 0.0  , 0.0  , 0.0  , 0.0  , 0.0  , 0.0  , 0.0  , 0.0  , 0.0  , 0.0  , 0.0  , 0.0  , 0.0  , 0.0  , 0.0  , 0.0  , 0.0  , 0.0  , 0.0  , 0.0  , 0.03  , -0.0  , -0.18  , -0.34  , -0.48  , -0.56  , -0.64  , -0.71  , -0.78  , 0.0  , 0.0  , 0.0  , 0.0  , 0.0  , 0.0  , 0.0  , 0.0  , 0.0  , 0.0  , 0.0  , 0.0  , 0.0  , 0.0  , 0.0  , 0.0  , 0.0  , 0.0  , 0.0  , 0.0  , 0.0  , 0.0  , 0.0  , 0.0  , 0.0  , 0.0  , 0.0  , 0.0  , 0.0  , 0.0  , 0.0  , 0.0  , 0.0  , 0.0  , 0.0  , 0.0  , 0.0  , 0.0  , 0.0  , 0.0 );
                        kernels[35] = compute_kernel(x,   0.01  , 0.03  , 0.02  , -0.03  , -0.04  , -0.07  , -0.11  , -0.14  , 0.0  , 0.0  , 0.0  , 0.0  , 0.0  , 0.0  , 0.0  , 0.0  , 0.0  , 0.0  , 0.0  , 0.0  , 0.0  , 0.0  , 0.0  , 0.0  , 0.0  , 0.0  , 0.0  , 0.0  , 0.0  , 0.0  , 0.0  , 0.0  , 0.0  , 0.0  , 0.0  , 0.0  , 0.0  , 0.0  , 0.0  , 0.0  , 0.0  , 0.0  , 0.0  , 0.0  , 0.0  , 0.0  , 0.0  , 0.0  , 0.0  , 0.0  , -0.03  , -0.13  , -0.27  , -0.31  , -0.31  , -0.29  , -0.28  , -0.26  , 0.0  , 0.0  , 0.0  , 0.0  , 0.0  , 0.0  , 0.0  , 0.0  , 0.0  , 0.0  , 0.0  , 0.0  , 0.0  , 0.0  , 0.0  , 0.0  , 0.0  , 0.0  , 0.0  , 0.0  , 0.0  , 0.0  , 0.0  , 0.0  , 0.0  , 0.0  , 0.0  , 0.0  , 0.0  , 0.0  , 0.0  , 0.0  , 0.0  , 0.0  , 0.0  , 0.0  , 0.0  , 0.0  , 0.0  , 0.0  , 0.0  , 0.0 );
                        kernels[36] = compute_kernel(x,   -0.0  , -0.01  , -0.01  , -0.01  , -0.02  , -0.03  , -0.01  , -0.02  , -0.03  , -0.02  , 0.0  , 0.0  , 0.0  , 0.0  , 0.0  , 0.0  , 0.0  , 0.0  , 0.0  , 0.0  , 0.0  , 0.0  , 0.0  , 0.0  , 0.0  , 0.0  , 0.0  , 0.0  , 0.0  , 0.0  , 0.0  , 0.0  , 0.0  , 0.0  , 0.0  , 0.0  , 0.0  , 0.0  , 0.0  , 0.0  , 0.0  , 0.0  , 0.0  , 0.0  , 0.0  , 0.0  , 0.0  , 0.0  , 0.0  , 0.0  , 0.0  , 0.0  , 0.01  , 0.01  , -0.01  , -0.05  , -0.16  , -0.31  , -0.34  , -0.34  , 0.0  , 0.0  , 0.0  , 0.0  , 0.0  , 0.0  , 0.0  , 0.0  , 0.0  , 0.0  , 0.0  , 0.0  , 0.0  , 0.0  , 0.0  , 0.0  , 0.0  , 0.0  , 0.0  , 0.0  , 0.0  , 0.0  , 0.0  , 0.0  , 0.0  , 0.0  , 0.0  , 0.0  , 0.0  , 0.0  , 0.0  , 0.0  , 0.0  , 0.0  , 0.0  , 0.0  , 0.0  , 0.0  , 0.0  , 0.0 );
                        kernels[37] = compute_kernel(x,   0.0  , 0.0  , 0.01  , 0.01  , 0.01  , 0.03  , 0.05  , 0.06  , 0.0  , 0.0  , 0.0  , 0.0  , 0.0  , 0.0  , 0.0  , 0.0  , 0.0  , 0.0  , 0.0  , 0.0  , 0.0  , 0.0  , 0.0  , 0.0  , 0.0  , 0.0  , 0.0  , 0.0  , 0.0  , 0.0  , 0.0  , 0.0  , 0.0  , 0.0  , 0.0  , 0.0  , 0.0  , 0.0  , 0.0  , 0.0  , 0.0  , 0.0  , 0.0  , 0.0  , 0.0  , 0.0  , 0.0  , 0.0  , 0.0  , 0.0  , -0.01  , -0.02  , -0.07  , -0.19  , -0.28  , -0.29  , -0.28  , -0.24  , 0.0  , 0.0  , 0.0  , 0.0  , 0.0  , 0.0  , 0.0  , 0.0  , 0.0  , 0.0  , 0.0  , 0.0  , 0.0  , 0.0  , 0.0  , 0.0  , 0.0  , 0.0  , 0.0  , 0.0  , 0.0  , 0.0  , 0.0  , 0.0  , 0.0  , 0.0  , 0.0  , 0.0  , 0.0  , 0.0  , 0.0  , 0.0  , 0.0  , 0.0  , 0.0  , 0.0  , 0.0  , 0.0  , 0.0  , 0.0  , 0.0  , 0.0 );
                        kernels[38] = compute_kernel(x,   -0.0  , 0.01  , 0.05  , 0.03  , 0.0  , 0.03  , 0.02  , 0.01  , 0.0  , 0.0  , 0.0  , 0.0  , 0.0  , 0.0  , 0.0  , 0.0  , 0.0  , 0.0  , 0.0  , 0.0  , 0.0  , 0.0  , 0.0  , 0.0  , 0.0  , 0.0  , 0.0  , 0.0  , 0.0  , 0.0  , 0.0  , 0.0  , 0.0  , 0.0  , 0.0  , 0.0  , 0.0  , 0.0  , 0.0  , 0.0  , 0.0  , 0.0  , 0.0  , 0.0  , 0.0  , 0.0  , 0.0  , 0.0  , 0.0  , 0.0  , -0.0  , -0.04  , -0.17  , -0.29  , -0.33  , -0.33  , -0.3  , -0.28  , 0.0  , 0.0  , 0.0  , 0.0  , 0.0  , 0.0  , 0.0  , 0.0  , 0.0  , 0.0  , 0.0  , 0.0  , 0.0  , 0.0  , 0.0  , 0.0  , 0.0  , 0.0  , 0.0  , 0.0  , 0.0  , 0.0  , 0.0  , 0.0  , 0.0  , 0.0  , 0.0  , 0.0  , 0.0  , 0.0  , 0.0  , 0.0  , 0.0  , 0.0  , 0.0  , 0.0  , 0.0  , 0.0  , 0.0  , 0.0  , 0.0  , 0.0 );
                        kernels[39] = compute_kernel(x,   -0.01  , -0.01  , -0.05  , -0.07  , -0.08  , -0.09  , -0.1  , -0.11  , -0.12  , 0.0  , 0.0  , 0.0  , 0.0  , 0.0  , 0.0  , 0.0  , 0.0  , 0.0  , 0.0  , 0.0  , 0.0  , 0.0  , 0.0  , 0.0  , 0.0  , 0.0  , 0.0  , 0.0  , 0.0  , 0.0  , 0.0  , 0.0  , 0.0  , 0.0  , 0.0  , 0.0  , 0.0  , 0.0  , 0.0  , 0.0  , 0.0  , 0.0  , 0.0  , 0.0  , 0.0  , 0.0  , 0.0  , 0.0  , 0.0  , 0.0  , -0.09  , -0.12  , -0.11  , -0.04  , 0.02  , 0.1  , 0.18  , 0.26  , 0.35  , 0.0  , 0.0  , 0.0  , 0.0  , 0.0  , 0.0  , 0.0  , 0.0  , 0.0  , 0.0  , 0.0  , 0.0  , 0.0  , 0.0  , 0.0  , 0.0  , 0.0  , 0.0  , 0.0  , 0.0  , 0.0  , 0.0  , 0.0  , 0.0  , 0.0  , 0.0  , 0.0  , 0.0  , 0.0  , 0.0  , 0.0  , 0.0  , 0.0  , 0.0  , 0.0  , 0.0  , 0.0  , 0.0  , 0.0  , 0.0  , 0.0 );
                        kernels[40] = compute_kernel(x,   0.0  , 0.01  , 0.01  , 0.01  , -0.02  , -0.11  , -0.15  , -0.16  , -0.15  , -0.13  , -0.11  , 0.0  , 0.0  , 0.0  , 0.0  , 0.0  , 0.0  , 0.0  , 0.0  , 0.0  , 0.0  , 0.0  , 0.0  , 0.0  , 0.0  , 0.0  , 0.0  , 0.0  , 0.0  , 0.0  , 0.0  , 0.0  , 0.0  , 0.0  , 0.0  , 0.0  , 0.0  , 0.0  , 0.0  , 0.0  , 0.0  , 0.0  , 0.0  , 0.0  , 0.0  , 0.0  , 0.0  , 0.0  , 0.0  , 0.0  , -0.0  , -0.01  , -0.02  , -0.07  , -0.16  , -0.23  , -0.26  , -0.27  , -0.27  , -0.28  , -0.28  , 0.0  , 0.0  , 0.0  , 0.0  , 0.0  , 0.0  , 0.0  , 0.0  , 0.0  , 0.0  , 0.0  , 0.0  , 0.0  , 0.0  , 0.0  , 0.0  , 0.0  , 0.0  , 0.0  , 0.0  , 0.0  , 0.0  , 0.0  , 0.0  , 0.0  , 0.0  , 0.0  , 0.0  , 0.0  , 0.0  , 0.0  , 0.0  , 0.0  , 0.0  , 0.0  , 0.0  , 0.0  , 0.0  , 0.0 );
                        kernels[41] = compute_kernel(x,   0.0  , 0.0  , 0.01  , 0.03  , 0.04  , 0.03  , 0.03  , 0.01  , 0.01  , 0.02  , 0.01  , 0.01  , 0.0  , 0.0  , 0.0  , 0.0  , 0.0  , 0.0  , 0.0  , 0.0  , 0.0  , 0.0  , 0.0  , 0.0  , 0.0  , 0.0  , 0.0  , 0.0  , 0.0  , 0.0  , 0.0  , 0.0  , 0.0  , 0.0  , 0.0  , 0.0  , 0.0  , 0.0  , 0.0  , 0.0  , 0.0  , 0.0  , 0.0  , 0.0  , 0.0  , 0.0  , 0.0  , 0.0  , 0.0  , 0.0  , -0.0  , -0.02  , -0.06  , -0.14  , -0.25  , -0.38  , -0.48  , -0.54  , -0.57  , -0.58  , -0.59  , -0.6  , 0.0  , 0.0  , 0.0  , 0.0  , 0.0  , 0.0  , 0.0  , 0.0  , 0.0  , 0.0  , 0.0  , 0.0  , 0.0  , 0.0  , 0.0  , 0.0  , 0.0  , 0.0  , 0.0  , 0.0  , 0.0  , 0.0  , 0.0  , 0.0  , 0.0  , 0.0  , 0.0  , 0.0  , 0.0  , 0.0  , 0.0  , 0.0  , 0.0  , 0.0  , 0.0  , 0.0  , 0.0  , 0.0 );
                        kernels[42] = compute_kernel(x,   0.0  , 0.0  , -0.0  , 0.0  , 0.0  , 0.02  , 0.06  , 0.09  , 0.08  , 0.09  , 0.09  , 0.1  , 0.0  , 0.0  , 0.0  , 0.0  , 0.0  , 0.0  , 0.0  , 0.0  , 0.0  , 0.0  , 0.0  , 0.0  , 0.0  , 0.0  , 0.0  , 0.0  , 0.0  , 0.0  , 0.0  , 0.0  , 0.0  , 0.0  , 0.0  , 0.0  , 0.0  , 0.0  , 0.0  , 0.0  , 0.0  , 0.0  , 0.0  , 0.0  , 0.0  , 0.0  , 0.0  , 0.0  , 0.0  , 0.0  , 0.0  , 0.0  , 0.01  , 0.01  , 0.01  , -0.0  , -0.1  , -0.26  , -0.29  , -0.28  , -0.25  , -0.22  , 0.0  , 0.0  , 0.0  , 0.0  , 0.0  , 0.0  , 0.0  , 0.0  , 0.0  , 0.0  , 0.0  , 0.0  , 0.0  , 0.0  , 0.0  , 0.0  , 0.0  , 0.0  , 0.0  , 0.0  , 0.0  , 0.0  , 0.0  , 0.0  , 0.0  , 0.0  , 0.0  , 0.0  , 0.0  , 0.0  , 0.0  , 0.0  , 0.0  , 0.0  , 0.0  , 0.0  , 0.0  , 0.0 );
                        kernels[43] = compute_kernel(x,   0.02  , 0.05  , 0.09  , 0.15  , 0.17  , 0.15  , 0.15  , 0.27  , 0.4  , 0.0  , 0.0  , 0.0  , 0.0  , 0.0  , 0.0  , 0.0  , 0.0  , 0.0  , 0.0  , 0.0  , 0.0  , 0.0  , 0.0  , 0.0  , 0.0  , 0.0  , 0.0  , 0.0  , 0.0  , 0.0  , 0.0  , 0.0  , 0.0  , 0.0  , 0.0  , 0.0  , 0.0  , 0.0  , 0.0  , 0.0  , 0.0  , 0.0  , 0.0  , 0.0  , 0.0  , 0.0  , 0.0  , 0.0  , 0.0  , 0.0  , -0.03  , -0.08  , -0.16  , -0.25  , -0.35  , -0.53  , -0.76  , -0.95  , -1.16  , 0.0  , 0.0  , 0.0  , 0.0  , 0.0  , 0.0  , 0.0  , 0.0  , 0.0  , 0.0  , 0.0  , 0.0  , 0.0  , 0.0  , 0.0  , 0.0  , 0.0  , 0.0  , 0.0  , 0.0  , 0.0  , 0.0  , 0.0  , 0.0  , 0.0  , 0.0  , 0.0  , 0.0  , 0.0  , 0.0  , 0.0  , 0.0  , 0.0  , 0.0  , 0.0  , 0.0  , 0.0  , 0.0  , 0.0  , 0.0  , 0.0 );
                        kernels[44] = compute_kernel(x,   0.0  , 0.0  , 0.0  , 0.0  , 0.01  , 0.01  , 0.01  , 0.01  , 0.01  , 0.01  , 0.01  , 0.0  , 0.0  , 0.0  , -0.0  , 0.01  , -0.0  , -0.01  , -0.01  , 0.0  , 0.01  , 0.02  , 0.0  , 0.0  , 0.0  , 0.0  , 0.0  , 0.0  , 0.0  , 0.0  , 0.0  , 0.0  , 0.0  , 0.0  , 0.0  , 0.0  , 0.0  , 0.0  , 0.0  , 0.0  , 0.0  , 0.0  , 0.0  , 0.0  , 0.0  , 0.0  , 0.0  , 0.0  , 0.0  , 0.0  , 0.0  , 0.0  , 0.01  , 0.01  , 0.02  , 0.02  , 0.02  , 0.03  , 0.03  , 0.04  , 0.04  , 0.05  , 0.06  , 0.06  , 0.03  , -0.08  , -0.24  , -0.32  , -0.34  , -0.36  , -0.35  , -0.33  , 0.0  , 0.0  , 0.0  , 0.0  , 0.0  , 0.0  , 0.0  , 0.0  , 0.0  , 0.0  , 0.0  , 0.0  , 0.0  , 0.0  , 0.0  , 0.0  , 0.0  , 0.0  , 0.0  , 0.0  , 0.0  , 0.0  , 0.0  , 0.0  , 0.0  , 0.0  , 0.0  , 0.0 );
                        kernels[45] = compute_kernel(x,   -0.0  , 0.01  , 0.03  , 0.05  , 0.03  , 0.03  , 0.09  , 0.1  , 0.13  , 0.17  , 0.2  , 0.0  , 0.0  , 0.0  , 0.0  , 0.0  , 0.0  , 0.0  , 0.0  , 0.0  , 0.0  , 0.0  , 0.0  , 0.0  , 0.0  , 0.0  , 0.0  , 0.0  , 0.0  , 0.0  , 0.0  , 0.0  , 0.0  , 0.0  , 0.0  , 0.0  , 0.0  , 0.0  , 0.0  , 0.0  , 0.0  , 0.0  , 0.0  , 0.0  , 0.0  , 0.0  , 0.0  , 0.0  , 0.0  , 0.0  , -0.0  , -0.02  , -0.11  , -0.3  , -0.5  , -0.54  , -0.56  , -0.54  , -0.54  , -0.54  , -0.54  , 0.0  , 0.0  , 0.0  , 0.0  , 0.0  , 0.0  , 0.0  , 0.0  , 0.0  , 0.0  , 0.0  , 0.0  , 0.0  , 0.0  , 0.0  , 0.0  , 0.0  , 0.0  , 0.0  , 0.0  , 0.0  , 0.0  , 0.0  , 0.0  , 0.0  , 0.0  , 0.0  , 0.0  , 0.0  , 0.0  , 0.0  , 0.0  , 0.0  , 0.0  , 0.0  , 0.0  , 0.0  , 0.0  , 0.0 );
                        kernels[46] = compute_kernel(x,   0.01  , 0.05  , 0.04  , -0.0  , -0.01  , 0.08  , 0.21  , 0.0  , 0.0  , 0.0  , 0.0  , 0.0  , 0.0  , 0.0  , 0.0  , 0.0  , 0.0  , 0.0  , 0.0  , 0.0  , 0.0  , 0.0  , 0.0  , 0.0  , 0.0  , 0.0  , 0.0  , 0.0  , 0.0  , 0.0  , 0.0  , 0.0  , 0.0  , 0.0  , 0.0  , 0.0  , 0.0  , 0.0  , 0.0  , 0.0  , 0.0  , 0.0  , 0.0  , 0.0  , 0.0  , 0.0  , 0.0  , 0.0  , 0.0  , 0.0  , -0.03  , -0.06  , -0.13  , -0.27  , -0.48  , -0.69  , -0.94  , 0.0  , 0.0  , 0.0  , 0.0  , 0.0  , 0.0  , 0.0  , 0.0  , 0.0  , 0.0  , 0.0  , 0.0  , 0.0  , 0.0  , 0.0  , 0.0  , 0.0  , 0.0  , 0.0  , 0.0  , 0.0  , 0.0  , 0.0  , 0.0  , 0.0  , 0.0  , 0.0  , 0.0  , 0.0  , 0.0  , 0.0  , 0.0  , 0.0  , 0.0  , 0.0  , 0.0  , 0.0  , 0.0  , 0.0  , 0.0  , 0.0  , 0.0  , 0.0 );
                        kernels[47] = compute_kernel(x,   -0.0  , -0.0  , 0.0  , 0.0  , 0.0  , 0.0  , 0.0  , 0.01  , 0.01  , 0.01  , 0.02  , 0.05  , 0.04  , 0.05  , 0.05  , 0.05  , 0.04  , 0.0  , 0.0  , 0.0  , 0.0  , 0.0  , 0.0  , 0.0  , 0.0  , 0.0  , 0.0  , 0.0  , 0.0  , 0.0  , 0.0  , 0.0  , 0.0  , 0.0  , 0.0  , 0.0  , 0.0  , 0.0  , 0.0  , 0.0  , 0.0  , 0.0  , 0.0  , 0.0  , 0.0  , 0.0  , 0.0  , 0.0  , 0.0  , 0.0  , -0.0  , -0.0  , -0.0  , 0.0  , 0.0  , 0.01  , 0.01  , 0.01  , 0.01  , -0.01  , -0.09  , -0.26  , -0.4  , -0.38  , -0.39  , -0.35  , -0.31  , 0.0  , 0.0  , 0.0  , 0.0  , 0.0  , 0.0  , 0.0  , 0.0  , 0.0  , 0.0  , 0.0  , 0.0  , 0.0  , 0.0  , 0.0  , 0.0  , 0.0  , 0.0  , 0.0  , 0.0  , 0.0  , 0.0  , 0.0  , 0.0  , 0.0  , 0.0  , 0.0  , 0.0  , 0.0  , 0.0  , 0.0  , 0.0  , 0.0 );
                        kernels[48] = compute_kernel(x,   0.0  , 0.0  , 0.0  , 0.0  , 0.0  , 0.01  , 0.01  , 0.01  , 0.03  , 0.05  , 0.08  , 0.11  , 0.14  , 0.0  , 0.0  , 0.0  , 0.0  , 0.0  , 0.0  , 0.0  , 0.0  , 0.0  , 0.0  , 0.0  , 0.0  , 0.0  , 0.0  , 0.0  , 0.0  , 0.0  , 0.0  , 0.0  , 0.0  , 0.0  , 0.0  , 0.0  , 0.0  , 0.0  , 0.0  , 0.0  , 0.0  , 0.0  , 0.0  , 0.0  , 0.0  , 0.0  , 0.0  , 0.0  , 0.0  , 0.0  , 0.0  , 0.0  , 0.0  , 0.01  , 0.01  , -0.01  , -0.06  , -0.09  , -0.12  , -0.16  , -0.2  , -0.24  , -0.27  , 0.0  , 0.0  , 0.0  , 0.0  , 0.0  , 0.0  , 0.0  , 0.0  , 0.0  , 0.0  , 0.0  , 0.0  , 0.0  , 0.0  , 0.0  , 0.0  , 0.0  , 0.0  , 0.0  , 0.0  , 0.0  , 0.0  , 0.0  , 0.0  , 0.0  , 0.0  , 0.0  , 0.0  , 0.0  , 0.0  , 0.0  , 0.0  , 0.0  , 0.0  , 0.0  , 0.0  , 0.0 );
                        kernels[49] = compute_kernel(x,   -0.0  , 0.0  , -0.0  , 0.0  , 0.0  , 0.01  , 0.01  , 0.0  , 0.0  , -0.0  , -0.01  , -0.01  , 0.0  , 0.0  , 0.0  , 0.0  , 0.0  , 0.0  , 0.0  , 0.0  , 0.0  , 0.0  , 0.0  , 0.0  , 0.0  , 0.0  , 0.0  , 0.0  , 0.0  , 0.0  , 0.0  , 0.0  , 0.0  , 0.0  , 0.0  , 0.0  , 0.0  , 0.0  , 0.0  , 0.0  , 0.0  , 0.0  , 0.0  , 0.0  , 0.0  , 0.0  , 0.0  , 0.0  , 0.0  , 0.0  , 0.0  , 0.0  , 0.0  , 0.0  , -0.02  , -0.08  , -0.1  , -0.09  , -0.09  , -0.09  , -0.07  , -0.06  , 0.0  , 0.0  , 0.0  , 0.0  , 0.0  , 0.0  , 0.0  , 0.0  , 0.0  , 0.0  , 0.0  , 0.0  , 0.0  , 0.0  , 0.0  , 0.0  , 0.0  , 0.0  , 0.0  , 0.0  , 0.0  , 0.0  , 0.0  , 0.0  , 0.0  , 0.0  , 0.0  , 0.0  , 0.0  , 0.0  , 0.0  , 0.0  , 0.0  , 0.0  , 0.0  , 0.0  , 0.0  , 0.0 );
                        kernels[50] = compute_kernel(x,   -0.0  , -0.0  , -0.0  , 0.01  , 0.03  , 0.03  , 0.0  , -0.02  , -0.03  , -0.04  , -0.06  , 0.0  , 0.0  , 0.0  , 0.0  , 0.0  , 0.0  , 0.0  , 0.0  , 0.0  , 0.0  , 0.0  , 0.0  , 0.0  , 0.0  , 0.0  , 0.0  , 0.0  , 0.0  , 0.0  , 0.0  , 0.0  , 0.0  , 0.0  , 0.0  , 0.0  , 0.0  , 0.0  , 0.0  , 0.0  , 0.0  , 0.0  , 0.0  , 0.0  , 0.0  , 0.0  , 0.0  , 0.0  , 0.0  , 0.0  , 0.0  , 0.0  , 0.0  , -0.01  , -0.08  , -0.2  , -0.23  , -0.24  , -0.21  , -0.18  , -0.14  , 0.0  , 0.0  , 0.0  , 0.0  , 0.0  , 0.0  , 0.0  , 0.0  , 0.0  , 0.0  , 0.0  , 0.0  , 0.0  , 0.0  , 0.0  , 0.0  , 0.0  , 0.0  , 0.0  , 0.0  , 0.0  , 0.0  , 0.0  , 0.0  , 0.0  , 0.0  , 0.0  , 0.0  , 0.0  , 0.0  , 0.0  , 0.0  , 0.0  , 0.0  , 0.0  , 0.0  , 0.0  , 0.0  , 0.0 );
                        kernels[51] = compute_kernel(x,   0.01  , 0.02  , -0.09  , -0.11  , -0.05  , 0.01  , 0.09  , 0.0  , 0.0  , 0.0  , 0.0  , 0.0  , 0.0  , 0.0  , 0.0  , 0.0  , 0.0  , 0.0  , 0.0  , 0.0  , 0.0  , 0.0  , 0.0  , 0.0  , 0.0  , 0.0  , 0.0  , 0.0  , 0.0  , 0.0  , 0.0  , 0.0  , 0.0  , 0.0  , 0.0  , 0.0  , 0.0  , 0.0  , 0.0  , 0.0  , 0.0  , 0.0  , 0.0  , 0.0  , 0.0  , 0.0  , 0.0  , 0.0  , 0.0  , 0.0  , -0.0  , 0.0  , -0.07  , -0.25  , -0.48  , -0.76  , -1.07  , 0.0  , 0.0  , 0.0  , 0.0  , 0.0  , 0.0  , 0.0  , 0.0  , 0.0  , 0.0  , 0.0  , 0.0  , 0.0  , 0.0  , 0.0  , 0.0  , 0.0  , 0.0  , 0.0  , 0.0  , 0.0  , 0.0  , 0.0  , 0.0  , 0.0  , 0.0  , 0.0  , 0.0  , 0.0  , 0.0  , 0.0  , 0.0  , 0.0  , 0.0  , 0.0  , 0.0  , 0.0  , 0.0  , 0.0  , 0.0  , 0.0  , 0.0  , 0.0 );
                        kernels[52] = compute_kernel(x,   0.0  , 0.0  , 0.0  , 0.0  , 0.0  , 0.02  , 0.04  , 0.01  , -0.0  , -0.0  , -0.02  , -0.02  , -0.03  , 0.0  , 0.0  , 0.0  , 0.0  , 0.0  , 0.0  , 0.0  , 0.0  , 0.0  , 0.0  , 0.0  , 0.0  , 0.0  , 0.0  , 0.0  , 0.0  , 0.0  , 0.0  , 0.0  , 0.0  , 0.0  , 0.0  , 0.0  , 0.0  , 0.0  , 0.0  , 0.0  , 0.0  , 0.0  , 0.0  , 0.0  , 0.0  , 0.0  , 0.0  , 0.0  , 0.0  , 0.0  , 0.0  , 0.0  , 0.01  , 0.01  , 0.01  , -0.02  , -0.09  , -0.22  , -0.26  , -0.25  , -0.23  , -0.22  , -0.21  , 0.0  , 0.0  , 0.0  , 0.0  , 0.0  , 0.0  , 0.0  , 0.0  , 0.0  , 0.0  , 0.0  , 0.0  , 0.0  , 0.0  , 0.0  , 0.0  , 0.0  , 0.0  , 0.0  , 0.0  , 0.0  , 0.0  , 0.0  , 0.0  , 0.0  , 0.0  , 0.0  , 0.0  , 0.0  , 0.0  , 0.0  , 0.0  , 0.0  , 0.0  , 0.0  , 0.0  , 0.0 );
                        kernels[53] = compute_kernel(x,   0.0  , 0.01  , 0.01  , 0.04  , 0.05  , 0.01  , 0.0  , 0.0  , 0.01  , 0.0  , 0.0  , 0.0  , 0.0  , 0.0  , 0.0  , 0.0  , 0.0  , 0.0  , 0.0  , 0.0  , 0.0  , 0.0  , 0.0  , 0.0  , 0.0  , 0.0  , 0.0  , 0.0  , 0.0  , 0.0  , 0.0  , 0.0  , 0.0  , 0.0  , 0.0  , 0.0  , 0.0  , 0.0  , 0.0  , 0.0  , 0.0  , 0.0  , 0.0  , 0.0  , 0.0  , 0.0  , 0.0  , 0.0  , 0.0  , 0.0  , 0.0  , 0.0  , -0.0  , -0.04  , -0.14  , -0.24  , -0.26  , -0.26  , -0.24  , 0.0  , 0.0  , 0.0  , 0.0  , 0.0  , 0.0  , 0.0  , 0.0  , 0.0  , 0.0  , 0.0  , 0.0  , 0.0  , 0.0  , 0.0  , 0.0  , 0.0  , 0.0  , 0.0  , 0.0  , 0.0  , 0.0  , 0.0  , 0.0  , 0.0  , 0.0  , 0.0  , 0.0  , 0.0  , 0.0  , 0.0  , 0.0  , 0.0  , 0.0  , 0.0  , 0.0  , 0.0  , 0.0  , 0.0  , 0.0  , 0.0 );
                        kernels[54] = compute_kernel(x,   -0.05  , -0.16  , -0.2  , -0.17  , -0.13  , -0.08  , 0.0  , 0.0  , 0.0  , 0.0  , 0.0  , 0.0  , 0.0  , 0.0  , 0.0  , 0.0  , 0.0  , 0.0  , 0.0  , 0.0  , 0.0  , 0.0  , 0.0  , 0.0  , 0.0  , 0.0  , 0.0  , 0.0  , 0.0  , 0.0  , 0.0  , 0.0  , 0.0  , 0.0  , 0.0  , 0.0  , 0.0  , 0.0  , 0.0  , 0.0  , 0.0  , 0.0  , 0.0  , 0.0  , 0.0  , 0.0  , 0.0  , 0.0  , 0.0  , 0.0  , 0.02  , 0.04  , 0.04  , 0.04  , 0.04  , 0.04  , 0.0  , 0.0  , 0.0  , 0.0  , 0.0  , 0.0  , 0.0  , 0.0  , 0.0  , 0.0  , 0.0  , 0.0  , 0.0  , 0.0  , 0.0  , 0.0  , 0.0  , 0.0  , 0.0  , 0.0  , 0.0  , 0.0  , 0.0  , 0.0  , 0.0  , 0.0  , 0.0  , 0.0  , 0.0  , 0.0  , 0.0  , 0.0  , 0.0  , 0.0  , 0.0  , 0.0  , 0.0  , 0.0  , 0.0  , 0.0  , 0.0  , 0.0  , 0.0  , 0.0 );
                        kernels[55] = compute_kernel(x,   -0.0  , -0.0  , -0.0  , -0.0  , -0.02  , -0.1  , -0.15  , -0.12  , -0.09  , -0.05  , -0.0  , 0.04  , 0.0  , 0.0  , 0.0  , 0.0  , 0.0  , 0.0  , 0.0  , 0.0  , 0.0  , 0.0  , 0.0  , 0.0  , 0.0  , 0.0  , 0.0  , 0.0  , 0.0  , 0.0  , 0.0  , 0.0  , 0.0  , 0.0  , 0.0  , 0.0  , 0.0  , 0.0  , 0.0  , 0.0  , 0.0  , 0.0  , 0.0  , 0.0  , 0.0  , 0.0  , 0.0  , 0.0  , 0.0  , 0.0  , -0.0  , -0.01  , -0.01  , -0.02  , -0.05  , -0.11  , -0.16  , -0.19  , -0.21  , -0.24  , -0.26  , -0.28  , 0.0  , 0.0  , 0.0  , 0.0  , 0.0  , 0.0  , 0.0  , 0.0  , 0.0  , 0.0  , 0.0  , 0.0  , 0.0  , 0.0  , 0.0  , 0.0  , 0.0  , 0.0  , 0.0  , 0.0  , 0.0  , 0.0  , 0.0  , 0.0  , 0.0  , 0.0  , 0.0  , 0.0  , 0.0  , 0.0  , 0.0  , 0.0  , 0.0  , 0.0  , 0.0  , 0.0  , 0.0  , 0.0 );
                        kernels[56] = compute_kernel(x,   0.0  , -0.03  , -0.17  , -0.36  , -0.44  , -0.46  , -0.47  , 0.0  , 0.0  , 0.0  , 0.0  , 0.0  , 0.0  , 0.0  , 0.0  , 0.0  , 0.0  , 0.0  , 0.0  , 0.0  , 0.0  , 0.0  , 0.0  , 0.0  , 0.0  , 0.0  , 0.0  , 0.0  , 0.0  , 0.0  , 0.0  , 0.0  , 0.0  , 0.0  , 0.0  , 0.0  , 0.0  , 0.0  , 0.0  , 0.0  , 0.0  , 0.0  , 0.0  , 0.0  , 0.0  , 0.0  , 0.0  , 0.0  , 0.0  , 0.0  , -0.01  , -0.03  , -0.08  , -0.11  , -0.13  , -0.13  , -0.12  , 0.0  , 0.0  , 0.0  , 0.0  , 0.0  , 0.0  , 0.0  , 0.0  , 0.0  , 0.0  , 0.0  , 0.0  , 0.0  , 0.0  , 0.0  , 0.0  , 0.0  , 0.0  , 0.0  , 0.0  , 0.0  , 0.0  , 0.0  , 0.0  , 0.0  , 0.0  , 0.0  , 0.0  , 0.0  , 0.0  , 0.0  , 0.0  , 0.0  , 0.0  , 0.0  , 0.0  , 0.0  , 0.0  , 0.0  , 0.0  , 0.0  , 0.0  , 0.0 );
                        kernels[57] = compute_kernel(x,   0.04  , 0.19  , 0.27  , 0.33  , 0.32  , 0.31  , 0.28  , 0.0  , 0.0  , 0.0  , 0.0  , 0.0  , 0.0  , 0.0  , 0.0  , 0.0  , 0.0  , 0.0  , 0.0  , 0.0  , 0.0  , 0.0  , 0.0  , 0.0  , 0.0  , 0.0  , 0.0  , 0.0  , 0.0  , 0.0  , 0.0  , 0.0  , 0.0  , 0.0  , 0.0  , 0.0  , 0.0  , 0.0  , 0.0  , 0.0  , 0.0  , 0.0  , 0.0  , 0.0  , 0.0  , 0.0  , 0.0  , 0.0  , 0.0  , 0.0  , 0.04  , 0.11  , 0.12  , 0.08  , 0.05  , 0.01  , -0.03  , 0.0  , 0.0  , 0.0  , 0.0  , 0.0  , 0.0  , 0.0  , 0.0  , 0.0  , 0.0  , 0.0  , 0.0  , 0.0  , 0.0  , 0.0  , 0.0  , 0.0  , 0.0  , 0.0  , 0.0  , 0.0  , 0.0  , 0.0  , 0.0  , 0.0  , 0.0  , 0.0  , 0.0  , 0.0  , 0.0  , 0.0  , 0.0  , 0.0  , 0.0  , 0.0  , 0.0  , 0.0  , 0.0  , 0.0  , 0.0  , 0.0  , 0.0  , 0.0 );
                        kernels[58] = compute_kernel(x,   0.0  , 0.01  , -0.04  , -0.23  , -0.32  , -0.35  , -0.4  , -0.46  , -0.5  , 0.0  , 0.0  , 0.0  , 0.0  , 0.0  , 0.0  , 0.0  , 0.0  , 0.0  , 0.0  , 0.0  , 0.0  , 0.0  , 0.0  , 0.0  , 0.0  , 0.0  , 0.0  , 0.0  , 0.0  , 0.0  , 0.0  , 0.0  , 0.0  , 0.0  , 0.0  , 0.0  , 0.0  , 0.0  , 0.0  , 0.0  , 0.0  , 0.0  , 0.0  , 0.0  , 0.0  , 0.0  , 0.0  , 0.0  , 0.0  , 0.0  , -0.0  , 0.01  , 0.02  , 0.03  , 0.04  , 0.07  , 0.11  , 0.15  , 0.18  , 0.0  , 0.0  , 0.0  , 0.0  , 0.0  , 0.0  , 0.0  , 0.0  , 0.0  , 0.0  , 0.0  , 0.0  , 0.0  , 0.0  , 0.0  , 0.0  , 0.0  , 0.0  , 0.0  , 0.0  , 0.0  , 0.0  , 0.0  , 0.0  , 0.0  , 0.0  , 0.0  , 0.0  , 0.0  , 0.0  , 0.0  , 0.0  , 0.0  , 0.0  , 0.0  , 0.0  , 0.0  , 0.0  , 0.0  , 0.0  , 0.0 );
                        kernels[59] = compute_kernel(x,   0.06  , 0.16  , 0.25  , 0.25  , 0.23  , 0.21  , 0.0  , 0.0  , 0.0  , 0.0  , 0.0  , 0.0  , 0.0  , 0.0  , 0.0  , 0.0  , 0.0  , 0.0  , 0.0  , 0.0  , 0.0  , 0.0  , 0.0  , 0.0  , 0.0  , 0.0  , 0.0  , 0.0  , 0.0  , 0.0  , 0.0  , 0.0  , 0.0  , 0.0  , 0.0  , 0.0  , 0.0  , 0.0  , 0.0  , 0.0  , 0.0  , 0.0  , 0.0  , 0.0  , 0.0  , 0.0  , 0.0  , 0.0  , 0.0  , 0.0  , 0.11  , 0.27  , 0.28  , 0.24  , 0.21  , 0.18  , 0.0  , 0.0  , 0.0  , 0.0  , 0.0  , 0.0  , 0.0  , 0.0  , 0.0  , 0.0  , 0.0  , 0.0  , 0.0  , 0.0  , 0.0  , 0.0  , 0.0  , 0.0  , 0.0  , 0.0  , 0.0  , 0.0  , 0.0  , 0.0  , 0.0  , 0.0  , 0.0  , 0.0  , 0.0  , 0.0  , 0.0  , 0.0  , 0.0  , 0.0  , 0.0  , 0.0  , 0.0  , 0.0  , 0.0  , 0.0  , 0.0  , 0.0  , 0.0  , 0.0 );
                        kernels[60] = compute_kernel(x,   -0.0  , -0.03  , -0.13  , -0.18  , -0.18  , -0.17  , 0.0  , 0.0  , 0.0  , 0.0  , 0.0  , 0.0  , 0.0  , 0.0  , 0.0  , 0.0  , 0.0  , 0.0  , 0.0  , 0.0  , 0.0  , 0.0  , 0.0  , 0.0  , 0.0  , 0.0  , 0.0  , 0.0  , 0.0  , 0.0  , 0.0  , 0.0  , 0.0  , 0.0  , 0.0  , 0.0  , 0.0  , 0.0  , 0.0  , 0.0  , 0.0  , 0.0  , 0.0  , 0.0  , 0.0  , 0.0  , 0.0  , 0.0  , 0.0  , 0.0  , -0.0  , 0.0  , 0.0  , 0.05  , 0.08  , 0.13  , 0.0  , 0.0  , 0.0  , 0.0  , 0.0  , 0.0  , 0.0  , 0.0  , 0.0  , 0.0  , 0.0  , 0.0  , 0.0  , 0.0  , 0.0  , 0.0  , 0.0  , 0.0  , 0.0  , 0.0  , 0.0  , 0.0  , 0.0  , 0.0  , 0.0  , 0.0  , 0.0  , 0.0  , 0.0  , 0.0  , 0.0  , 0.0  , 0.0  , 0.0  , 0.0  , 0.0  , 0.0  , 0.0  , 0.0  , 0.0  , 0.0  , 0.0  , 0.0  , 0.0 );
                        kernels[61] = compute_kernel(x,   0.0  , 0.0  , 0.0  , 0.0  , 0.0  , 0.0  , 0.0  , 0.0  , 0.0  , 0.0  , -0.0  , -0.01  , -0.07  , -0.2  , -0.31  , -0.34  , -0.33  , -0.31  , 0.0  , 0.0  , 0.0  , 0.0  , 0.0  , 0.0  , 0.0  , 0.0  , 0.0  , 0.0  , 0.0  , 0.0  , 0.0  , 0.0  , 0.0  , 0.0  , 0.0  , 0.0  , 0.0  , 0.0  , 0.0  , 0.0  , 0.0  , 0.0  , 0.0  , 0.0  , 0.0  , 0.0  , 0.0  , 0.0  , 0.0  , 0.0  , -0.0  , -0.0  , -0.0  , -0.0  , -0.01  , -0.01  , -0.01  , -0.01  , -0.01  , -0.01  , -0.01  , -0.01  , -0.0  , -0.0  , 0.02  , -0.02  , -0.06  , -0.08  , 0.0  , 0.0  , 0.0  , 0.0  , 0.0  , 0.0  , 0.0  , 0.0  , 0.0  , 0.0  , 0.0  , 0.0  , 0.0  , 0.0  , 0.0  , 0.0  , 0.0  , 0.0  , 0.0  , 0.0  , 0.0  , 0.0  , 0.0  , 0.0  , 0.0  , 0.0  , 0.0  , 0.0  , 0.0  , 0.0  , 0.0  , 0.0 );
                        kernels[62] = compute_kernel(x,   -0.03  , -0.15  , -0.31  , -0.34  , -0.34  , -0.32  , 0.0  , 0.0  , 0.0  , 0.0  , 0.0  , 0.0  , 0.0  , 0.0  , 0.0  , 0.0  , 0.0  , 0.0  , 0.0  , 0.0  , 0.0  , 0.0  , 0.0  , 0.0  , 0.0  , 0.0  , 0.0  , 0.0  , 0.0  , 0.0  , 0.0  , 0.0  , 0.0  , 0.0  , 0.0  , 0.0  , 0.0  , 0.0  , 0.0  , 0.0  , 0.0  , 0.0  , 0.0  , 0.0  , 0.0  , 0.0  , 0.0  , 0.0  , 0.0  , 0.0  , -0.03  , -0.06  , -0.09  , -0.09  , -0.06  , -0.03  , 0.0  , 0.0  , 0.0  , 0.0  , 0.0  , 0.0  , 0.0  , 0.0  , 0.0  , 0.0  , 0.0  , 0.0  , 0.0  , 0.0  , 0.0  , 0.0  , 0.0  , 0.0  , 0.0  , 0.0  , 0.0  , 0.0  , 0.0  , 0.0  , 0.0  , 0.0  , 0.0  , 0.0  , 0.0  , 0.0  , 0.0  , 0.0  , 0.0  , 0.0  , 0.0  , 0.0  , 0.0  , 0.0  , 0.0  , 0.0  , 0.0  , 0.0  , 0.0  , 0.0 );
                        kernels[63] = compute_kernel(x,   -0.0  , -0.0  , -0.0  , -0.0  , -0.0  , -0.0  , -0.0  , 0.0  , 0.0  , -0.03  , -0.14  , -0.24  , -0.31  , -0.33  , -0.34  , -0.35  , 0.0  , 0.0  , 0.0  , 0.0  , 0.0  , 0.0  , 0.0  , 0.0  , 0.0  , 0.0  , 0.0  , 0.0  , 0.0  , 0.0  , 0.0  , 0.0  , 0.0  , 0.0  , 0.0  , 0.0  , 0.0  , 0.0  , 0.0  , 0.0  , 0.0  , 0.0  , 0.0  , 0.0  , 0.0  , 0.0  , 0.0  , 0.0  , 0.0  , 0.0  , 0.0  , 0.0  , 0.0  , 0.0  , 0.0  , 0.01  , 0.01  , 0.02  , 0.03  , 0.06  , 0.05  , 0.03  , 0.03  , 0.03  , 0.03  , 0.03  , 0.0  , 0.0  , 0.0  , 0.0  , 0.0  , 0.0  , 0.0  , 0.0  , 0.0  , 0.0  , 0.0  , 0.0  , 0.0  , 0.0  , 0.0  , 0.0  , 0.0  , 0.0  , 0.0  , 0.0  , 0.0  , 0.0  , 0.0  , 0.0  , 0.0  , 0.0  , 0.0  , 0.0  , 0.0  , 0.0  , 0.0  , 0.0  , 0.0  , 0.0 );
                        kernels[64] = compute_kernel(x,   0.0  , -0.0  , -0.04  , -0.17  , -0.25  , -0.25  , 0.0  , 0.0  , 0.0  , 0.0  , 0.0  , 0.0  , 0.0  , 0.0  , 0.0  , 0.0  , 0.0  , 0.0  , 0.0  , 0.0  , 0.0  , 0.0  , 0.0  , 0.0  , 0.0  , 0.0  , 0.0  , 0.0  , 0.0  , 0.0  , 0.0  , 0.0  , 0.0  , 0.0  , 0.0  , 0.0  , 0.0  , 0.0  , 0.0  , 0.0  , 0.0  , 0.0  , 0.0  , 0.0  , 0.0  , 0.0  , 0.0  , 0.0  , 0.0  , 0.0  , -0.0  , 0.0  , 0.03  , 0.06  , 0.09  , 0.12  , 0.0  , 0.0  , 0.0  , 0.0  , 0.0  , 0.0  , 0.0  , 0.0  , 0.0  , 0.0  , 0.0  , 0.0  , 0.0  , 0.0  , 0.0  , 0.0  , 0.0  , 0.0  , 0.0  , 0.0  , 0.0  , 0.0  , 0.0  , 0.0  , 0.0  , 0.0  , 0.0  , 0.0  , 0.0  , 0.0  , 0.0  , 0.0  , 0.0  , 0.0  , 0.0  , 0.0  , 0.0  , 0.0  , 0.0  , 0.0  , 0.0  , 0.0  , 0.0  , 0.0 );
                        kernels[65] = compute_kernel(x,   -0.1  , -0.1  , -0.07  , -0.03  , 0.03  , 0.08  , 0.0  , 0.0  , 0.0  , 0.0  , 0.0  , 0.0  , 0.0  , 0.0  , 0.0  , 0.0  , 0.0  , 0.0  , 0.0  , 0.0  , 0.0  , 0.0  , 0.0  , 0.0  , 0.0  , 0.0  , 0.0  , 0.0  , 0.0  , 0.0  , 0.0  , 0.0  , 0.0  , 0.0  , 0.0  , 0.0  , 0.0  , 0.0  , 0.0  , 0.0  , 0.0  , 0.0  , 0.0  , 0.0  , 0.0  , 0.0  , 0.0  , 0.0  , 0.0  , 0.0  , 0.02  , 0.06  , 0.1  , 0.14  , 0.19  , 0.24  , 0.0  , 0.0  , 0.0  , 0.0  , 0.0  , 0.0  , 0.0  , 0.0  , 0.0  , 0.0  , 0.0  , 0.0  , 0.0  , 0.0  , 0.0  , 0.0  , 0.0  , 0.0  , 0.0  , 0.0  , 0.0  , 0.0  , 0.0  , 0.0  , 0.0  , 0.0  , 0.0  , 0.0  , 0.0  , 0.0  , 0.0  , 0.0  , 0.0  , 0.0  , 0.0  , 0.0  , 0.0  , 0.0  , 0.0  , 0.0  , 0.0  , 0.0  , 0.0  , 0.0 );
                        kernels[66] = compute_kernel(x,   -0.09  , -0.17  , -0.15  , -0.12  , -0.08  , 0.0  , 0.0  , 0.0  , 0.0  , 0.0  , 0.0  , 0.0  , 0.0  , 0.0  , 0.0  , 0.0  , 0.0  , 0.0  , 0.0  , 0.0  , 0.0  , 0.0  , 0.0  , 0.0  , 0.0  , 0.0  , 0.0  , 0.0  , 0.0  , 0.0  , 0.0  , 0.0  , 0.0  , 0.0  , 0.0  , 0.0  , 0.0  , 0.0  , 0.0  , 0.0  , 0.0  , 0.0  , 0.0  , 0.0  , 0.0  , 0.0  , 0.0  , 0.0  , 0.0  , 0.0  , -0.04  , -0.03  , -0.04  , 0.01  , 0.03  , 0.0  , 0.0  , 0.0  , 0.0  , 0.0  , 0.0  , 0.0  , 0.0  , 0.0  , 0.0  , 0.0  , 0.0  , 0.0  , 0.0  , 0.0  , 0.0  , 0.0  , 0.0  , 0.0  , 0.0  , 0.0  , 0.0  , 0.0  , 0.0  , 0.0  , 0.0  , 0.0  , 0.0  , 0.0  , 0.0  , 0.0  , 0.0  , 0.0  , 0.0  , 0.0  , 0.0  , 0.0  , 0.0  , 0.0  , 0.0  , 0.0  , 0.0  , 0.0  , 0.0  , 0.0 );
                        kernels[67] = compute_kernel(x,   -0.0  , -0.01  , -0.02  , -0.08  , -0.23  , -0.3  , -0.32  , -0.33  , 0.0  , 0.0  , 0.0  , 0.0  , 0.0  , 0.0  , 0.0  , 0.0  , 0.0  , 0.0  , 0.0  , 0.0  , 0.0  , 0.0  , 0.0  , 0.0  , 0.0  , 0.0  , 0.0  , 0.0  , 0.0  , 0.0  , 0.0  , 0.0  , 0.0  , 0.0  , 0.0  , 0.0  , 0.0  , 0.0  , 0.0  , 0.0  , 0.0  , 0.0  , 0.0  , 0.0  , 0.0  , 0.0  , 0.0  , 0.0  , 0.0  , 0.0  , -0.0  , -0.0  , 0.0  , 0.02  , 0.07  , 0.13  , 0.18  , 0.25  , 0.0  , 0.0  , 0.0  , 0.0  , 0.0  , 0.0  , 0.0  , 0.0  , 0.0  , 0.0  , 0.0  , 0.0  , 0.0  , 0.0  , 0.0  , 0.0  , 0.0  , 0.0  , 0.0  , 0.0  , 0.0  , 0.0  , 0.0  , 0.0  , 0.0  , 0.0  , 0.0  , 0.0  , 0.0  , 0.0  , 0.0  , 0.0  , 0.0  , 0.0  , 0.0  , 0.0  , 0.0  , 0.0  , 0.0  , 0.0  , 0.0  , 0.0 );
                        kernels[68] = compute_kernel(x,   0.0  , 0.0  , 0.0  , 0.0  , 0.0  , -0.0  , -0.09  , -0.22  , -0.31  , -0.37  , -0.4  , -0.44  , 0.0  , 0.0  , 0.0  , 0.0  , 0.0  , 0.0  , 0.0  , 0.0  , 0.0  , 0.0  , 0.0  , 0.0  , 0.0  , 0.0  , 0.0  , 0.0  , 0.0  , 0.0  , 0.0  , 0.0  , 0.0  , 0.0  , 0.0  , 0.0  , 0.0  , 0.0  , 0.0  , 0.0  , 0.0  , 0.0  , 0.0  , 0.0  , 0.0  , 0.0  , 0.0  , 0.0  , 0.0  , 0.0  , -0.0  , -0.0  , -0.01  , -0.01  , -0.01  , -0.01  , -0.03  , -0.04  , -0.05  , -0.07  , -0.09  , -0.11  , 0.0  , 0.0  , 0.0  , 0.0  , 0.0  , 0.0  , 0.0  , 0.0  , 0.0  , 0.0  , 0.0  , 0.0  , 0.0  , 0.0  , 0.0  , 0.0  , 0.0  , 0.0  , 0.0  , 0.0  , 0.0  , 0.0  , 0.0  , 0.0  , 0.0  , 0.0  , 0.0  , 0.0  , 0.0  , 0.0  , 0.0  , 0.0  , 0.0  , 0.0  , 0.0  , 0.0  , 0.0  , 0.0 );
                        kernels[69] = compute_kernel(x,   -0.09  , -0.2  , -0.22  , -0.21  , -0.18  , -0.15  , -0.11  , 0.0  , 0.0  , 0.0  , 0.0  , 0.0  , 0.0  , 0.0  , 0.0  , 0.0  , 0.0  , 0.0  , 0.0  , 0.0  , 0.0  , 0.0  , 0.0  , 0.0  , 0.0  , 0.0  , 0.0  , 0.0  , 0.0  , 0.0  , 0.0  , 0.0  , 0.0  , 0.0  , 0.0  , 0.0  , 0.0  , 0.0  , 0.0  , 0.0  , 0.0  , 0.0  , 0.0  , 0.0  , 0.0  , 0.0  , 0.0  , 0.0  , 0.0  , 0.0  , -0.03  , -0.01  , 0.02  , 0.09  , 0.16  , 0.23  , 0.29  , 0.0  , 0.0  , 0.0  , 0.0  , 0.0  , 0.0  , 0.0  , 0.0  , 0.0  , 0.0  , 0.0  , 0.0  , 0.0  , 0.0  , 0.0  , 0.0  , 0.0  , 0.0  , 0.0  , 0.0  , 0.0  , 0.0  , 0.0  , 0.0  , 0.0  , 0.0  , 0.0  , 0.0  , 0.0  , 0.0  , 0.0  , 0.0  , 0.0  , 0.0  , 0.0  , 0.0  , 0.0  , 0.0  , 0.0  , 0.0  , 0.0  , 0.0  , 0.0 );
                        kernels[70] = compute_kernel(x,   -0.0  , 0.01  , 0.01  , -0.01  , -0.07  , -0.28  , -0.45  , -0.55  , -0.59  , -0.6  , -0.6  , 0.0  , 0.0  , 0.0  , 0.0  , 0.0  , 0.0  , 0.0  , 0.0  , 0.0  , 0.0  , 0.0  , 0.0  , 0.0  , 0.0  , 0.0  , 0.0  , 0.0  , 0.0  , 0.0  , 0.0  , 0.0  , 0.0  , 0.0  , 0.0  , 0.0  , 0.0  , 0.0  , 0.0  , 0.0  , 0.0  , 0.0  , 0.0  , 0.0  , 0.0  , 0.0  , 0.0  , 0.0  , 0.0  , 0.0  , 0.0  , -0.0  , -0.0  , -0.0  , -0.01  , -0.0  , -0.08  , -0.19  , -0.27  , -0.36  , -0.46  , 0.0  , 0.0  , 0.0  , 0.0  , 0.0  , 0.0  , 0.0  , 0.0  , 0.0  , 0.0  , 0.0  , 0.0  , 0.0  , 0.0  , 0.0  , 0.0  , 0.0  , 0.0  , 0.0  , 0.0  , 0.0  , 0.0  , 0.0  , 0.0  , 0.0  , 0.0  , 0.0  , 0.0  , 0.0  , 0.0  , 0.0  , 0.0  , 0.0  , 0.0  , 0.0  , 0.0  , 0.0  , 0.0  , 0.0 );
                        kernels[71] = compute_kernel(x,   0.01  , 0.07  , 0.15  , 0.07  , -0.02  , -0.11  , -0.2  , 0.0  , 0.0  , 0.0  , 0.0  , 0.0  , 0.0  , 0.0  , 0.0  , 0.0  , 0.0  , 0.0  , 0.0  , 0.0  , 0.0  , 0.0  , 0.0  , 0.0  , 0.0  , 0.0  , 0.0  , 0.0  , 0.0  , 0.0  , 0.0  , 0.0  , 0.0  , 0.0  , 0.0  , 0.0  , 0.0  , 0.0  , 0.0  , 0.0  , 0.0  , 0.0  , 0.0  , 0.0  , 0.0  , 0.0  , 0.0  , 0.0  , 0.0  , 0.0  , 0.0  , 0.02  , 0.04  , 0.02  , -0.04  , -0.09  , -0.16  , 0.0  , 0.0  , 0.0  , 0.0  , 0.0  , 0.0  , 0.0  , 0.0  , 0.0  , 0.0  , 0.0  , 0.0  , 0.0  , 0.0  , 0.0  , 0.0  , 0.0  , 0.0  , 0.0  , 0.0  , 0.0  , 0.0  , 0.0  , 0.0  , 0.0  , 0.0  , 0.0  , 0.0  , 0.0  , 0.0  , 0.0  , 0.0  , 0.0  , 0.0  , 0.0  , 0.0  , 0.0  , 0.0  , 0.0  , 0.0  , 0.0  , 0.0  , 0.0 );
                        kernels[72] = compute_kernel(x,   0.0  , 0.0  , 0.0  , 0.0  , 0.0  , 0.01  , 0.01  , 0.01  , 0.01  , 0.01  , 0.02  , 0.02  , 0.02  , 0.02  , 0.02  , 0.01  , -0.01  , -0.03  , -0.05  , -0.09  , -0.1  , -0.09  , -0.07  , -0.03  , 0.01  , 0.06  , 0.0  , 0.0  , 0.0  , 0.0  , 0.0  , 0.0  , 0.0  , 0.0  , 0.0  , 0.0  , 0.0  , 0.0  , 0.0  , 0.0  , 0.0  , 0.0  , 0.0  , 0.0  , 0.0  , 0.0  , 0.0  , 0.0  , 0.0  , 0.0  , -0.0  , -0.0  , -0.01  , -0.01  , -0.01  , -0.01  , -0.02  , -0.03  , -0.03  , -0.03  , -0.04  , -0.04  , -0.05  , -0.06  , -0.07  , -0.07  , -0.07  , -0.06  , -0.06  , -0.06  , -0.07  , -0.07  , -0.08  , -0.09  , -0.1  , -0.11  , 0.0  , 0.0  , 0.0  , 0.0  , 0.0  , 0.0  , 0.0  , 0.0  , 0.0  , 0.0  , 0.0  , 0.0  , 0.0  , 0.0  , 0.0  , 0.0  , 0.0  , 0.0  , 0.0  , 0.0  , 0.0  , 0.0  , 0.0  , 0.0 );
                        kernels[73] = compute_kernel(x,   -0.0  , 0.0  , -0.0  , -0.0  , -0.0  , 0.0  , 0.0  , 0.01  , 0.0  , -0.09  , -0.23  , -0.31  , -0.35  , -0.39  , -0.42  , 0.0  , 0.0  , 0.0  , 0.0  , 0.0  , 0.0  , 0.0  , 0.0  , 0.0  , 0.0  , 0.0  , 0.0  , 0.0  , 0.0  , 0.0  , 0.0  , 0.0  , 0.0  , 0.0  , 0.0  , 0.0  , 0.0  , 0.0  , 0.0  , 0.0  , 0.0  , 0.0  , 0.0  , 0.0  , 0.0  , 0.0  , 0.0  , 0.0  , 0.0  , 0.0  , 0.0  , -0.0  , -0.0  , -0.0  , 0.0  , 0.0  , 0.01  , 0.01  , 0.03  , -0.0  , -0.03  , -0.08  , -0.1  , -0.12  , -0.12  , 0.0  , 0.0  , 0.0  , 0.0  , 0.0  , 0.0  , 0.0  , 0.0  , 0.0  , 0.0  , 0.0  , 0.0  , 0.0  , 0.0  , 0.0  , 0.0  , 0.0  , 0.0  , 0.0  , 0.0  , 0.0  , 0.0  , 0.0  , 0.0  , 0.0  , 0.0  , 0.0  , 0.0  , 0.0  , 0.0  , 0.0  , 0.0  , 0.0  , 0.0  , 0.0 );
                        kernels[74] = compute_kernel(x,   -0.0  , 0.01  , 0.11  , 0.29  , 0.25  , 0.18  , 0.07  , 0.0  , 0.0  , 0.0  , 0.0  , 0.0  , 0.0  , 0.0  , 0.0  , 0.0  , 0.0  , 0.0  , 0.0  , 0.0  , 0.0  , 0.0  , 0.0  , 0.0  , 0.0  , 0.0  , 0.0  , 0.0  , 0.0  , 0.0  , 0.0  , 0.0  , 0.0  , 0.0  , 0.0  , 0.0  , 0.0  , 0.0  , 0.0  , 0.0  , 0.0  , 0.0  , 0.0  , 0.0  , 0.0  , 0.0  , 0.0  , 0.0  , 0.0  , 0.0  , 0.0  , 0.0  , 0.03  , 0.03  , -0.01  , -0.05  , -0.06  , 0.0  , 0.0  , 0.0  , 0.0  , 0.0  , 0.0  , 0.0  , 0.0  , 0.0  , 0.0  , 0.0  , 0.0  , 0.0  , 0.0  , 0.0  , 0.0  , 0.0  , 0.0  , 0.0  , 0.0  , 0.0  , 0.0  , 0.0  , 0.0  , 0.0  , 0.0  , 0.0  , 0.0  , 0.0  , 0.0  , 0.0  , 0.0  , 0.0  , 0.0  , 0.0  , 0.0  , 0.0  , 0.0  , 0.0  , 0.0  , 0.0  , 0.0  , 0.0 );
                        kernels[75] = compute_kernel(x,   0.01  , 0.03  , 0.05  , 0.07  , 0.08  , 0.06  , -0.06  , -0.21  , -0.22  , -0.18  , -0.13  , -0.08  , 0.0  , 0.0  , 0.0  , 0.0  , 0.0  , 0.0  , 0.0  , 0.0  , 0.0  , 0.0  , 0.0  , 0.0  , 0.0  , 0.0  , 0.0  , 0.0  , 0.0  , 0.0  , 0.0  , 0.0  , 0.0  , 0.0  , 0.0  , 0.0  , 0.0  , 0.0  , 0.0  , 0.0  , 0.0  , 0.0  , 0.0  , 0.0  , 0.0  , 0.0  , 0.0  , 0.0  , 0.0  , 0.0  , 0.0  , 0.0  , 0.01  , 0.02  , 0.02  , -0.0  , 0.0  , -0.01  , -0.05  , -0.09  , -0.12  , -0.15  , 0.0  , 0.0  , 0.0  , 0.0  , 0.0  , 0.0  , 0.0  , 0.0  , 0.0  , 0.0  , 0.0  , 0.0  , 0.0  , 0.0  , 0.0  , 0.0  , 0.0  , 0.0  , 0.0  , 0.0  , 0.0  , 0.0  , 0.0  , 0.0  , 0.0  , 0.0  , 0.0  , 0.0  , 0.0  , 0.0  , 0.0  , 0.0  , 0.0  , 0.0  , 0.0  , 0.0  , 0.0  , 0.0 );
                        kernels[76] = compute_kernel(x,   0.01  , 0.08  , 0.27  , 0.32  , 0.35  , 0.32  , 0.3  , 0.0  , 0.0  , 0.0  , 0.0  , 0.0  , 0.0  , 0.0  , 0.0  , 0.0  , 0.0  , 0.0  , 0.0  , 0.0  , 0.0  , 0.0  , 0.0  , 0.0  , 0.0  , 0.0  , 0.0  , 0.0  , 0.0  , 0.0  , 0.0  , 0.0  , 0.0  , 0.0  , 0.0  , 0.0  , 0.0  , 0.0  , 0.0  , 0.0  , 0.0  , 0.0  , 0.0  , 0.0  , 0.0  , 0.0  , 0.0  , 0.0  , 0.0  , 0.0  , 0.01  , 0.06  , 0.13  , 0.1  , 0.06  , 0.03  , -0.02  , 0.0  , 0.0  , 0.0  , 0.0  , 0.0  , 0.0  , 0.0  , 0.0  , 0.0  , 0.0  , 0.0  , 0.0  , 0.0  , 0.0  , 0.0  , 0.0  , 0.0  , 0.0  , 0.0  , 0.0  , 0.0  , 0.0  , 0.0  , 0.0  , 0.0  , 0.0  , 0.0  , 0.0  , 0.0  , 0.0  , 0.0  , 0.0  , 0.0  , 0.0  , 0.0  , 0.0  , 0.0  , 0.0  , 0.0  , 0.0  , 0.0  , 0.0  , 0.0 );
                        kernels[77] = compute_kernel(x,   -0.08  , -0.05  , 0.07  , 0.21  , 0.35  , 0.0  , 0.0  , 0.0  , 0.0  , 0.0  , 0.0  , 0.0  , 0.0  , 0.0  , 0.0  , 0.0  , 0.0  , 0.0  , 0.0  , 0.0  , 0.0  , 0.0  , 0.0  , 0.0  , 0.0  , 0.0  , 0.0  , 0.0  , 0.0  , 0.0  , 0.0  , 0.0  , 0.0  , 0.0  , 0.0  , 0.0  , 0.0  , 0.0  , 0.0  , 0.0  , 0.0  , 0.0  , 0.0  , 0.0  , 0.0  , 0.0  , 0.0  , 0.0  , 0.0  , 0.0  , -0.0  , -0.0  , -0.02  , -0.02  , 0.0  , 0.0  , 0.0  , 0.0  , 0.0  , 0.0  , 0.0  , 0.0  , 0.0  , 0.0  , 0.0  , 0.0  , 0.0  , 0.0  , 0.0  , 0.0  , 0.0  , 0.0  , 0.0  , 0.0  , 0.0  , 0.0  , 0.0  , 0.0  , 0.0  , 0.0  , 0.0  , 0.0  , 0.0  , 0.0  , 0.0  , 0.0  , 0.0  , 0.0  , 0.0  , 0.0  , 0.0  , 0.0  , 0.0  , 0.0  , 0.0  , 0.0  , 0.0  , 0.0  , 0.0  , 0.0 );
                        kernels[78] = compute_kernel(x,   0.08  , 0.31  , 0.37  , 0.34  , 0.28  , 0.0  , 0.0  , 0.0  , 0.0  , 0.0  , 0.0  , 0.0  , 0.0  , 0.0  , 0.0  , 0.0  , 0.0  , 0.0  , 0.0  , 0.0  , 0.0  , 0.0  , 0.0  , 0.0  , 0.0  , 0.0  , 0.0  , 0.0  , 0.0  , 0.0  , 0.0  , 0.0  , 0.0  , 0.0  , 0.0  , 0.0  , 0.0  , 0.0  , 0.0  , 0.0  , 0.0  , 0.0  , 0.0  , 0.0  , 0.0  , 0.0  , 0.0  , 0.0  , 0.0  , 0.0  , 0.0  , 0.01  , -0.02  , -0.09  , -0.12  , 0.0  , 0.0  , 0.0  , 0.0  , 0.0  , 0.0  , 0.0  , 0.0  , 0.0  , 0.0  , 0.0  , 0.0  , 0.0  , 0.0  , 0.0  , 0.0  , 0.0  , 0.0  , 0.0  , 0.0  , 0.0  , 0.0  , 0.0  , 0.0  , 0.0  , 0.0  , 0.0  , 0.0  , 0.0  , 0.0  , 0.0  , 0.0  , 0.0  , 0.0  , 0.0  , 0.0  , 0.0  , 0.0  , 0.0  , 0.0  , 0.0  , 0.0  , 0.0  , 0.0  , 0.0 );
                        kernels[79] = compute_kernel(x,   -0.09  , -0.1  , -0.0  , 0.11  , 0.24  , 0.0  , 0.0  , 0.0  , 0.0  , 0.0  , 0.0  , 0.0  , 0.0  , 0.0  , 0.0  , 0.0  , 0.0  , 0.0  , 0.0  , 0.0  , 0.0  , 0.0  , 0.0  , 0.0  , 0.0  , 0.0  , 0.0  , 0.0  , 0.0  , 0.0  , 0.0  , 0.0  , 0.0  , 0.0  , 0.0  , 0.0  , 0.0  , 0.0  , 0.0  , 0.0  , 0.0  , 0.0  , 0.0  , 0.0  , 0.0  , 0.0  , 0.0  , 0.0  , 0.0  , 0.0  , -0.02  , -0.06  , -0.09  , -0.13  , -0.16  , 0.0  , 0.0  , 0.0  , 0.0  , 0.0  , 0.0  , 0.0  , 0.0  , 0.0  , 0.0  , 0.0  , 0.0  , 0.0  , 0.0  , 0.0  , 0.0  , 0.0  , 0.0  , 0.0  , 0.0  , 0.0  , 0.0  , 0.0  , 0.0  , 0.0  , 0.0  , 0.0  , 0.0  , 0.0  , 0.0  , 0.0  , 0.0  , 0.0  , 0.0  , 0.0  , 0.0  , 0.0  , 0.0  , 0.0  , 0.0  , 0.0  , 0.0  , 0.0  , 0.0  , 0.0 );
                        kernels[80] = compute_kernel(x,   -0.07  , -0.12  , -0.11  , -0.07  , -0.01  , 0.05  , 0.0  , 0.0  , 0.0  , 0.0  , 0.0  , 0.0  , 0.0  , 0.0  , 0.0  , 0.0  , 0.0  , 0.0  , 0.0  , 0.0  , 0.0  , 0.0  , 0.0  , 0.0  , 0.0  , 0.0  , 0.0  , 0.0  , 0.0  , 0.0  , 0.0  , 0.0  , 0.0  , 0.0  , 0.0  , 0.0  , 0.0  , 0.0  , 0.0  , 0.0  , 0.0  , 0.0  , 0.0  , 0.0  , 0.0  , 0.0  , 0.0  , 0.0  , 0.0  , 0.0  , 0.0  , 0.02  , -0.0  , -0.01  , -0.02  , -0.03  , 0.0  , 0.0  , 0.0  , 0.0  , 0.0  , 0.0  , 0.0  , 0.0  , 0.0  , 0.0  , 0.0  , 0.0  , 0.0  , 0.0  , 0.0  , 0.0  , 0.0  , 0.0  , 0.0  , 0.0  , 0.0  , 0.0  , 0.0  , 0.0  , 0.0  , 0.0  , 0.0  , 0.0  , 0.0  , 0.0  , 0.0  , 0.0  , 0.0  , 0.0  , 0.0  , 0.0  , 0.0  , 0.0  , 0.0  , 0.0  , 0.0  , 0.0  , 0.0  , 0.0 );
                        kernels[81] = compute_kernel(x,   -0.1  , -0.27  , -0.3  , -0.3  , -0.27  , -0.22  , 0.0  , 0.0  , 0.0  , 0.0  , 0.0  , 0.0  , 0.0  , 0.0  , 0.0  , 0.0  , 0.0  , 0.0  , 0.0  , 0.0  , 0.0  , 0.0  , 0.0  , 0.0  , 0.0  , 0.0  , 0.0  , 0.0  , 0.0  , 0.0  , 0.0  , 0.0  , 0.0  , 0.0  , 0.0  , 0.0  , 0.0  , 0.0  , 0.0  , 0.0  , 0.0  , 0.0  , 0.0  , 0.0  , 0.0  , 0.0  , 0.0  , 0.0  , 0.0  , 0.0  , 0.02  , 0.01  , -0.03  , -0.05  , -0.06  , -0.08  , 0.0  , 0.0  , 0.0  , 0.0  , 0.0  , 0.0  , 0.0  , 0.0  , 0.0  , 0.0  , 0.0  , 0.0  , 0.0  , 0.0  , 0.0  , 0.0  , 0.0  , 0.0  , 0.0  , 0.0  , 0.0  , 0.0  , 0.0  , 0.0  , 0.0  , 0.0  , 0.0  , 0.0  , 0.0  , 0.0  , 0.0  , 0.0  , 0.0  , 0.0  , 0.0  , 0.0  , 0.0  , 0.0  , 0.0  , 0.0  , 0.0  , 0.0  , 0.0  , 0.0 );
                        kernels[82] = compute_kernel(x,   -0.01  , -0.05  , -0.13  , -0.15  , -0.15  , -0.15  , -0.14  , -0.14  , 0.0  , 0.0  , 0.0  , 0.0  , 0.0  , 0.0  , 0.0  , 0.0  , 0.0  , 0.0  , 0.0  , 0.0  , 0.0  , 0.0  , 0.0  , 0.0  , 0.0  , 0.0  , 0.0  , 0.0  , 0.0  , 0.0  , 0.0  , 0.0  , 0.0  , 0.0  , 0.0  , 0.0  , 0.0  , 0.0  , 0.0  , 0.0  , 0.0  , 0.0  , 0.0  , 0.0  , 0.0  , 0.0  , 0.0  , 0.0  , 0.0  , 0.0  , -0.0  , -0.02  , -0.04  , -0.06  , -0.07  , -0.09  , -0.1  , -0.11  , 0.0  , 0.0  , 0.0  , 0.0  , 0.0  , 0.0  , 0.0  , 0.0  , 0.0  , 0.0  , 0.0  , 0.0  , 0.0  , 0.0  , 0.0  , 0.0  , 0.0  , 0.0  , 0.0  , 0.0  , 0.0  , 0.0  , 0.0  , 0.0  , 0.0  , 0.0  , 0.0  , 0.0  , 0.0  , 0.0  , 0.0  , 0.0  , 0.0  , 0.0  , 0.0  , 0.0  , 0.0  , 0.0  , 0.0  , 0.0  , 0.0  , 0.0 );
                        kernels[83] = compute_kernel(x,   0.0  , 0.0  , -0.0  , -0.08  , -0.27  , -0.37  , -0.38  , -0.36  , -0.33  , 0.0  , 0.0  , 0.0  , 0.0  , 0.0  , 0.0  , 0.0  , 0.0  , 0.0  , 0.0  , 0.0  , 0.0  , 0.0  , 0.0  , 0.0  , 0.0  , 0.0  , 0.0  , 0.0  , 0.0  , 0.0  , 0.0  , 0.0  , 0.0  , 0.0  , 0.0  , 0.0  , 0.0  , 0.0  , 0.0  , 0.0  , 0.0  , 0.0  , 0.0  , 0.0  , 0.0  , 0.0  , 0.0  , 0.0  , 0.0  , 0.0  , -0.0  , -0.01  , -0.02  , 0.01  , 0.02  , -0.05  , -0.09  , -0.13  , -0.16  , 0.0  , 0.0  , 0.0  , 0.0  , 0.0  , 0.0  , 0.0  , 0.0  , 0.0  , 0.0  , 0.0  , 0.0  , 0.0  , 0.0  , 0.0  , 0.0  , 0.0  , 0.0  , 0.0  , 0.0  , 0.0  , 0.0  , 0.0  , 0.0  , 0.0  , 0.0  , 0.0  , 0.0  , 0.0  , 0.0  , 0.0  , 0.0  , 0.0  , 0.0  , 0.0  , 0.0  , 0.0  , 0.0  , 0.0  , 0.0  , 0.0 );
                        kernels[84] = compute_kernel(x,   -0.0  , -0.0  , -0.0  , -0.0  , -0.01  , -0.04  , -0.18  , -0.28  , -0.31  , -0.32  , -0.32  , -0.32  , 0.0  , 0.0  , 0.0  , 0.0  , 0.0  , 0.0  , 0.0  , 0.0  , 0.0  , 0.0  , 0.0  , 0.0  , 0.0  , 0.0  , 0.0  , 0.0  , 0.0  , 0.0  , 0.0  , 0.0  , 0.0  , 0.0  , 0.0  , 0.0  , 0.0  , 0.0  , 0.0  , 0.0  , 0.0  , 0.0  , 0.0  , 0.0  , 0.0  , 0.0  , 0.0  , 0.0  , 0.0  , 0.0  , -0.0  , -0.0  , -0.0  , -0.0  , -0.0  , 0.01  , 0.01  , 0.0  , 0.04  , 0.07  , 0.1  , 0.12  , 0.0  , 0.0  , 0.0  , 0.0  , 0.0  , 0.0  , 0.0  , 0.0  , 0.0  , 0.0  , 0.0  , 0.0  , 0.0  , 0.0  , 0.0  , 0.0  , 0.0  , 0.0  , 0.0  , 0.0  , 0.0  , 0.0  , 0.0  , 0.0  , 0.0  , 0.0  , 0.0  , 0.0  , 0.0  , 0.0  , 0.0  , 0.0  , 0.0  , 0.0  , 0.0  , 0.0  , 0.0  , 0.0 );
                        kernels[85] = compute_kernel(x,   -0.0  , -0.0  , -0.0  , 0.0  , 0.01  , -0.04  , -0.24  , -0.34  , -0.4  , -0.43  , -0.47  , 0.0  , 0.0  , 0.0  , 0.0  , 0.0  , 0.0  , 0.0  , 0.0  , 0.0  , 0.0  , 0.0  , 0.0  , 0.0  , 0.0  , 0.0  , 0.0  , 0.0  , 0.0  , 0.0  , 0.0  , 0.0  , 0.0  , 0.0  , 0.0  , 0.0  , 0.0  , 0.0  , 0.0  , 0.0  , 0.0  , 0.0  , 0.0  , 0.0  , 0.0  , 0.0  , 0.0  , 0.0  , 0.0  , 0.0  , 0.0  , 0.0  , 0.0  , 0.01  , 0.01  , 0.03  , -0.03  , -0.13  , -0.22  , -0.27  , -0.34  , 0.0  , 0.0  , 0.0  , 0.0  , 0.0  , 0.0  , 0.0  , 0.0  , 0.0  , 0.0  , 0.0  , 0.0  , 0.0  , 0.0  , 0.0  , 0.0  , 0.0  , 0.0  , 0.0  , 0.0  , 0.0  , 0.0  , 0.0  , 0.0  , 0.0  , 0.0  , 0.0  , 0.0  , 0.0  , 0.0  , 0.0  , 0.0  , 0.0  , 0.0  , 0.0  , 0.0  , 0.0  , 0.0  , 0.0 );
                        kernels[86] = compute_kernel(x,   -0.0  , -0.0  , -0.01  , -0.01  , -0.01  , -0.01  , -0.01  , -0.02  , -0.03  , -0.06  , -0.14  , -0.22  , -0.23  , -0.24  , -0.22  , 0.0  , 0.0  , 0.0  , 0.0  , 0.0  , 0.0  , 0.0  , 0.0  , 0.0  , 0.0  , 0.0  , 0.0  , 0.0  , 0.0  , 0.0  , 0.0  , 0.0  , 0.0  , 0.0  , 0.0  , 0.0  , 0.0  , 0.0  , 0.0  , 0.0  , 0.0  , 0.0  , 0.0  , 0.0  , 0.0  , 0.0  , 0.0  , 0.0  , 0.0  , 0.0  , 0.0  , 0.0  , 0.0  , 0.0  , 0.0  , 0.0  , 0.0  , 0.0  , 0.01  , 0.02  , 0.02  , 0.02  , 0.01  , 0.0  , -0.0  , 0.0  , 0.0  , 0.0  , 0.0  , 0.0  , 0.0  , 0.0  , 0.0  , 0.0  , 0.0  , 0.0  , 0.0  , 0.0  , 0.0  , 0.0  , 0.0  , 0.0  , 0.0  , 0.0  , 0.0  , 0.0  , 0.0  , 0.0  , 0.0  , 0.0  , 0.0  , 0.0  , 0.0  , 0.0  , 0.0  , 0.0  , 0.0  , 0.0  , 0.0  , 0.0 );
                        kernels[87] = compute_kernel(x,   -0.0  , -0.0  , -0.0  , -0.0  , 0.0  , 0.04  , -0.07  , -0.14  , -0.21  , -0.23  , 0.0  , 0.0  , 0.0  , 0.0  , 0.0  , 0.0  , 0.0  , 0.0  , 0.0  , 0.0  , 0.0  , 0.0  , 0.0  , 0.0  , 0.0  , 0.0  , 0.0  , 0.0  , 0.0  , 0.0  , 0.0  , 0.0  , 0.0  , 0.0  , 0.0  , 0.0  , 0.0  , 0.0  , 0.0  , 0.0  , 0.0  , 0.0  , 0.0  , 0.0  , 0.0  , 0.0  , 0.0  , 0.0  , 0.0  , 0.0  , -0.0  , 0.0  , -0.0  , -0.0  , 0.0  , -0.02  , -0.04  , -0.11  , -0.18  , -0.25  , 0.0  , 0.0  , 0.0  , 0.0  , 0.0  , 0.0  , 0.0  , 0.0  , 0.0  , 0.0  , 0.0  , 0.0  , 0.0  , 0.0  , 0.0  , 0.0  , 0.0  , 0.0  , 0.0  , 0.0  , 0.0  , 0.0  , 0.0  , 0.0  , 0.0  , 0.0  , 0.0  , 0.0  , 0.0  , 0.0  , 0.0  , 0.0  , 0.0  , 0.0  , 0.0  , 0.0  , 0.0  , 0.0  , 0.0  , 0.0 );
                        kernels[88] = compute_kernel(x,   -0.02  , -0.06  , -0.06  , 0.02  , 0.07  , 0.1  , 0.1  , 0.0  , 0.0  , 0.0  , 0.0  , 0.0  , 0.0  , 0.0  , 0.0  , 0.0  , 0.0  , 0.0  , 0.0  , 0.0  , 0.0  , 0.0  , 0.0  , 0.0  , 0.0  , 0.0  , 0.0  , 0.0  , 0.0  , 0.0  , 0.0  , 0.0  , 0.0  , 0.0  , 0.0  , 0.0  , 0.0  , 0.0  , 0.0  , 0.0  , 0.0  , 0.0  , 0.0  , 0.0  , 0.0  , 0.0  , 0.0  , 0.0  , 0.0  , 0.0  , 0.02  , 0.07  , 0.13  , 0.16  , 0.15  , 0.16  , 0.15  , 0.0  , 0.0  , 0.0  , 0.0  , 0.0  , 0.0  , 0.0  , 0.0  , 0.0  , 0.0  , 0.0  , 0.0  , 0.0  , 0.0  , 0.0  , 0.0  , 0.0  , 0.0  , 0.0  , 0.0  , 0.0  , 0.0  , 0.0  , 0.0  , 0.0  , 0.0  , 0.0  , 0.0  , 0.0  , 0.0  , 0.0  , 0.0  , 0.0  , 0.0  , 0.0  , 0.0  , 0.0  , 0.0  , 0.0  , 0.0  , 0.0  , 0.0  , 0.0 );
                        kernels[89] = compute_kernel(x,   0.0  , 0.01  , 0.04  , 0.19  , 0.0  , 0.0  , 0.0  , 0.0  , 0.0  , 0.0  , 0.0  , 0.0  , 0.0  , 0.0  , 0.0  , 0.0  , 0.0  , 0.0  , 0.0  , 0.0  , 0.0  , 0.0  , 0.0  , 0.0  , 0.0  , 0.0  , 0.0  , 0.0  , 0.0  , 0.0  , 0.0  , 0.0  , 0.0  , 0.0  , 0.0  , 0.0  , 0.0  , 0.0  , 0.0  , 0.0  , 0.0  , 0.0  , 0.0  , 0.0  , 0.0  , 0.0  , 0.0  , 0.0  , 0.0  , 0.0  , 0.0  , 0.01  , 0.04  , 0.11  , 0.0  , 0.0  , 0.0  , 0.0  , 0.0  , 0.0  , 0.0  , 0.0  , 0.0  , 0.0  , 0.0  , 0.0  , 0.0  , 0.0  , 0.0  , 0.0  , 0.0  , 0.0  , 0.0  , 0.0  , 0.0  , 0.0  , 0.0  , 0.0  , 0.0  , 0.0  , 0.0  , 0.0  , 0.0  , 0.0  , 0.0  , 0.0  , 0.0  , 0.0  , 0.0  , 0.0  , 0.0  , 0.0  , 0.0  , 0.0  , 0.0  , 0.0  , 0.0  , 0.0  , 0.0  , 0.0 );
                        kernels[90] = compute_kernel(x,   -0.03  , -0.11  , -0.18  , -0.11  , 0.03  , 0.16  , 0.25  , 0.34  , 0.43  , 0.0  , 0.0  , 0.0  , 0.0  , 0.0  , 0.0  , 0.0  , 0.0  , 0.0  , 0.0  , 0.0  , 0.0  , 0.0  , 0.0  , 0.0  , 0.0  , 0.0  , 0.0  , 0.0  , 0.0  , 0.0  , 0.0  , 0.0  , 0.0  , 0.0  , 0.0  , 0.0  , 0.0  , 0.0  , 0.0  , 0.0  , 0.0  , 0.0  , 0.0  , 0.0  , 0.0  , 0.0  , 0.0  , 0.0  , 0.0  , 0.0  , 0.03  , 0.09  , 0.16  , 0.19  , 0.18  , 0.14  , 0.1  , 0.05  , 0.01  , 0.0  , 0.0  , 0.0  , 0.0  , 0.0  , 0.0  , 0.0  , 0.0  , 0.0  , 0.0  , 0.0  , 0.0  , 0.0  , 0.0  , 0.0  , 0.0  , 0.0  , 0.0  , 0.0  , 0.0  , 0.0  , 0.0  , 0.0  , 0.0  , 0.0  , 0.0  , 0.0  , 0.0  , 0.0  , 0.0  , 0.0  , 0.0  , 0.0  , 0.0  , 0.0  , 0.0  , 0.0  , 0.0  , 0.0  , 0.0  , 0.0 );
                        kernels[91] = compute_kernel(x,   -0.0  , -0.0  , -0.0  , -0.0  , 0.02  , 0.09  , 0.17  , 0.21  , 0.23  , 0.0  , 0.0  , 0.0  , 0.0  , 0.0  , 0.0  , 0.0  , 0.0  , 0.0  , 0.0  , 0.0  , 0.0  , 0.0  , 0.0  , 0.0  , 0.0  , 0.0  , 0.0  , 0.0  , 0.0  , 0.0  , 0.0  , 0.0  , 0.0  , 0.0  , 0.0  , 0.0  , 0.0  , 0.0  , 0.0  , 0.0  , 0.0  , 0.0  , 0.0  , 0.0  , 0.0  , 0.0  , 0.0  , 0.0  , 0.0  , 0.0  , 0.0  , 0.0  , 0.0  , 0.01  , 0.02  , 0.05  , 0.08  , 0.11  , 0.14  , 0.0  , 0.0  , 0.0  , 0.0  , 0.0  , 0.0  , 0.0  , 0.0  , 0.0  , 0.0  , 0.0  , 0.0  , 0.0  , 0.0  , 0.0  , 0.0  , 0.0  , 0.0  , 0.0  , 0.0  , 0.0  , 0.0  , 0.0  , 0.0  , 0.0  , 0.0  , 0.0  , 0.0  , 0.0  , 0.0  , 0.0  , 0.0  , 0.0  , 0.0  , 0.0  , 0.0  , 0.0  , 0.0  , 0.0  , 0.0  , 0.0 );
                        kernels[92] = compute_kernel(x,   -0.0  , -0.01  , 0.0  , 0.15  , 0.23  , 0.26  , 0.27  , 0.28  , 0.27  , 0.0  , 0.0  , 0.0  , 0.0  , 0.0  , 0.0  , 0.0  , 0.0  , 0.0  , 0.0  , 0.0  , 0.0  , 0.0  , 0.0  , 0.0  , 0.0  , 0.0  , 0.0  , 0.0  , 0.0  , 0.0  , 0.0  , 0.0  , 0.0  , 0.0  , 0.0  , 0.0  , 0.0  , 0.0  , 0.0  , 0.0  , 0.0  , 0.0  , 0.0  , 0.0  , 0.0  , 0.0  , 0.0  , 0.0  , 0.0  , 0.0  , 0.0  , 0.03  , 0.08  , 0.12  , 0.14  , 0.14  , 0.14  , 0.14  , 0.14  , 0.0  , 0.0  , 0.0  , 0.0  , 0.0  , 0.0  , 0.0  , 0.0  , 0.0  , 0.0  , 0.0  , 0.0  , 0.0  , 0.0  , 0.0  , 0.0  , 0.0  , 0.0  , 0.0  , 0.0  , 0.0  , 0.0  , 0.0  , 0.0  , 0.0  , 0.0  , 0.0  , 0.0  , 0.0  , 0.0  , 0.0  , 0.0  , 0.0  , 0.0  , 0.0  , 0.0  , 0.0  , 0.0  , 0.0  , 0.0  , 0.0 );
                        kernels[93] = compute_kernel(x,   0.0  , 0.0  , 0.0  , -0.01  , -0.03  , 0.01  , 0.08  , 0.14  , 0.17  , 0.2  , 0.0  , 0.0  , 0.0  , 0.0  , 0.0  , 0.0  , 0.0  , 0.0  , 0.0  , 0.0  , 0.0  , 0.0  , 0.0  , 0.0  , 0.0  , 0.0  , 0.0  , 0.0  , 0.0  , 0.0  , 0.0  , 0.0  , 0.0  , 0.0  , 0.0  , 0.0  , 0.0  , 0.0  , 0.0  , 0.0  , 0.0  , 0.0  , 0.0  , 0.0  , 0.0  , 0.0  , 0.0  , 0.0  , 0.0  , 0.0  , -0.0  , -0.0  , 0.0  , 0.01  , 0.04  , 0.09  , 0.11  , 0.1  , 0.09  , 0.08  , 0.0  , 0.0  , 0.0  , 0.0  , 0.0  , 0.0  , 0.0  , 0.0  , 0.0  , 0.0  , 0.0  , 0.0  , 0.0  , 0.0  , 0.0  , 0.0  , 0.0  , 0.0  , 0.0  , 0.0  , 0.0  , 0.0  , 0.0  , 0.0  , 0.0  , 0.0  , 0.0  , 0.0  , 0.0  , 0.0  , 0.0  , 0.0  , 0.0  , 0.0  , 0.0  , 0.0  , 0.0  , 0.0  , 0.0  , 0.0 );
                        kernels[94] = compute_kernel(x,   -0.0  , -0.0  , 0.06  , 0.14  , 0.21  , 0.23  , 0.23  , 0.0  , 0.0  , 0.0  , 0.0  , 0.0  , 0.0  , 0.0  , 0.0  , 0.0  , 0.0  , 0.0  , 0.0  , 0.0  , 0.0  , 0.0  , 0.0  , 0.0  , 0.0  , 0.0  , 0.0  , 0.0  , 0.0  , 0.0  , 0.0  , 0.0  , 0.0  , 0.0  , 0.0  , 0.0  , 0.0  , 0.0  , 0.0  , 0.0  , 0.0  , 0.0  , 0.0  , 0.0  , 0.0  , 0.0  , 0.0  , 0.0  , 0.0  , 0.0  , -0.0  , 0.02  , 0.04  , 0.04  , 0.03  , 0.02  , 0.01  , 0.0  , 0.0  , 0.0  , 0.0  , 0.0  , 0.0  , 0.0  , 0.0  , 0.0  , 0.0  , 0.0  , 0.0  , 0.0  , 0.0  , 0.0  , 0.0  , 0.0  , 0.0  , 0.0  , 0.0  , 0.0  , 0.0  , 0.0  , 0.0  , 0.0  , 0.0  , 0.0  , 0.0  , 0.0  , 0.0  , 0.0  , 0.0  , 0.0  , 0.0  , 0.0  , 0.0  , 0.0  , 0.0  , 0.0  , 0.0  , 0.0  , 0.0  , 0.0 );
                        kernels[95] = compute_kernel(x,   0.02  , 0.11  , 0.22  , 0.27  , 0.29  , 0.27  , 0.25  , 0.21  , 0.0  , 0.0  , 0.0  , 0.0  , 0.0  , 0.0  , 0.0  , 0.0  , 0.0  , 0.0  , 0.0  , 0.0  , 0.0  , 0.0  , 0.0  , 0.0  , 0.0  , 0.0  , 0.0  , 0.0  , 0.0  , 0.0  , 0.0  , 0.0  , 0.0  , 0.0  , 0.0  , 0.0  , 0.0  , 0.0  , 0.0  , 0.0  , 0.0  , 0.0  , 0.0  , 0.0  , 0.0  , 0.0  , 0.0  , 0.0  , 0.0  , 0.0  , 0.01  , 0.08  , 0.14  , 0.15  , 0.17  , 0.18  , 0.2  , 0.22  , 0.0  , 0.0  , 0.0  , 0.0  , 0.0  , 0.0  , 0.0  , 0.0  , 0.0  , 0.0  , 0.0  , 0.0  , 0.0  , 0.0  , 0.0  , 0.0  , 0.0  , 0.0  , 0.0  , 0.0  , 0.0  , 0.0  , 0.0  , 0.0  , 0.0  , 0.0  , 0.0  , 0.0  , 0.0  , 0.0  , 0.0  , 0.0  , 0.0  , 0.0  , 0.0  , 0.0  , 0.0  , 0.0  , 0.0  , 0.0  , 0.0  , 0.0 );
                        kernels[96] = compute_kernel(x,   -0.01  , -0.04  , -0.09  , -0.12  , 0.04  , 0.16  , 0.25  , 0.32  , 0.38  , 0.45  , 0.51  , 0.0  , 0.0  , 0.0  , 0.0  , 0.0  , 0.0  , 0.0  , 0.0  , 0.0  , 0.0  , 0.0  , 0.0  , 0.0  , 0.0  , 0.0  , 0.0  , 0.0  , 0.0  , 0.0  , 0.0  , 0.0  , 0.0  , 0.0  , 0.0  , 0.0  , 0.0  , 0.0  , 0.0  , 0.0  , 0.0  , 0.0  , 0.0  , 0.0  , 0.0  , 0.0  , 0.0  , 0.0  , 0.0  , 0.0  , 0.0  , 0.03  , 0.08  , 0.15  , 0.16  , 0.13  , 0.1  , 0.07  , 0.04  , 0.0  , -0.04  , 0.0  , 0.0  , 0.0  , 0.0  , 0.0  , 0.0  , 0.0  , 0.0  , 0.0  , 0.0  , 0.0  , 0.0  , 0.0  , 0.0  , 0.0  , 0.0  , 0.0  , 0.0  , 0.0  , 0.0  , 0.0  , 0.0  , 0.0  , 0.0  , 0.0  , 0.0  , 0.0  , 0.0  , 0.0  , 0.0  , 0.0  , 0.0  , 0.0  , 0.0  , 0.0  , 0.0  , 0.0  , 0.0  , 0.0 );
                        kernels[97] = compute_kernel(x,   0.01  , 0.04  , 0.16  , 0.3  , 0.41  , 0.46  , 0.46  , 0.45  , 0.0  , 0.0  , 0.0  , 0.0  , 0.0  , 0.0  , 0.0  , 0.0  , 0.0  , 0.0  , 0.0  , 0.0  , 0.0  , 0.0  , 0.0  , 0.0  , 0.0  , 0.0  , 0.0  , 0.0  , 0.0  , 0.0  , 0.0  , 0.0  , 0.0  , 0.0  , 0.0  , 0.0  , 0.0  , 0.0  , 0.0  , 0.0  , 0.0  , 0.0  , 0.0  , 0.0  , 0.0  , 0.0  , 0.0  , 0.0  , 0.0  , 0.0  , 0.01  , 0.06  , 0.09  , 0.13  , 0.16  , 0.16  , 0.18  , 0.19  , 0.0  , 0.0  , 0.0  , 0.0  , 0.0  , 0.0  , 0.0  , 0.0  , 0.0  , 0.0  , 0.0  , 0.0  , 0.0  , 0.0  , 0.0  , 0.0  , 0.0  , 0.0  , 0.0  , 0.0  , 0.0  , 0.0  , 0.0  , 0.0  , 0.0  , 0.0  , 0.0  , 0.0  , 0.0  , 0.0  , 0.0  , 0.0  , 0.0  , 0.0  , 0.0  , 0.0  , 0.0  , 0.0  , 0.0  , 0.0  , 0.0  , 0.0 );
                        kernels[98] = compute_kernel(x,   -0.0  , 0.0  , 0.0  , 0.0  , 0.08  , 0.15  , 0.15  , 0.13  , 0.1  , 0.0  , 0.0  , 0.0  , 0.0  , 0.0  , 0.0  , 0.0  , 0.0  , 0.0  , 0.0  , 0.0  , 0.0  , 0.0  , 0.0  , 0.0  , 0.0  , 0.0  , 0.0  , 0.0  , 0.0  , 0.0  , 0.0  , 0.0  , 0.0  , 0.0  , 0.0  , 0.0  , 0.0  , 0.0  , 0.0  , 0.0  , 0.0  , 0.0  , 0.0  , 0.0  , 0.0  , 0.0  , 0.0  , 0.0  , 0.0  , 0.0  , -0.0  , -0.0  , 0.0  , 0.05  , 0.08  , 0.05  , 0.02  , 0.0  , -0.03  , 0.0  , 0.0  , 0.0  , 0.0  , 0.0  , 0.0  , 0.0  , 0.0  , 0.0  , 0.0  , 0.0  , 0.0  , 0.0  , 0.0  , 0.0  , 0.0  , 0.0  , 0.0  , 0.0  , 0.0  , 0.0  , 0.0  , 0.0  , 0.0  , 0.0  , 0.0  , 0.0  , 0.0  , 0.0  , 0.0  , 0.0  , 0.0  , 0.0  , 0.0  , 0.0  , 0.0  , 0.0  , 0.0  , 0.0  , 0.0  , 0.0 );
                        kernels[99] = compute_kernel(x,   0.01  , 0.08  , 0.22  , 0.27  , 0.27  , 0.24  , 0.19  , 0.12  , 0.0  , 0.0  , 0.0  , 0.0  , 0.0  , 0.0  , 0.0  , 0.0  , 0.0  , 0.0  , 0.0  , 0.0  , 0.0  , 0.0  , 0.0  , 0.0  , 0.0  , 0.0  , 0.0  , 0.0  , 0.0  , 0.0  , 0.0  , 0.0  , 0.0  , 0.0  , 0.0  , 0.0  , 0.0  , 0.0  , 0.0  , 0.0  , 0.0  , 0.0  , 0.0  , 0.0  , 0.0  , 0.0  , 0.0  , 0.0  , 0.0  , 0.0  , 0.01  , 0.04  , 0.1  , 0.12  , 0.13  , 0.13  , 0.13  , 0.12  , 0.0  , 0.0  , 0.0  , 0.0  , 0.0  , 0.0  , 0.0  , 0.0  , 0.0  , 0.0  , 0.0  , 0.0  , 0.0  , 0.0  , 0.0  , 0.0  , 0.0  , 0.0  , 0.0  , 0.0  , 0.0  , 0.0  , 0.0  , 0.0  , 0.0  , 0.0  , 0.0  , 0.0  , 0.0  , 0.0  , 0.0  , 0.0  , 0.0  , 0.0  , 0.0  , 0.0  , 0.0  , 0.0  , 0.0  , 0.0  , 0.0  , 0.0 );
                        kernels[100] = compute_kernel(x,   0.0  , -0.0  , -0.01  , 0.03  , 0.12  , 0.17  , 0.2  , 0.19  , 0.17  , 0.0  , 0.0  , 0.0  , 0.0  , 0.0  , 0.0  , 0.0  , 0.0  , 0.0  , 0.0  , 0.0  , 0.0  , 0.0  , 0.0  , 0.0  , 0.0  , 0.0  , 0.0  , 0.0  , 0.0  , 0.0  , 0.0  , 0.0  , 0.0  , 0.0  , 0.0  , 0.0  , 0.0  , 0.0  , 0.0  , 0.0  , 0.0  , 0.0  , 0.0  , 0.0  , 0.0  , 0.0  , 0.0  , 0.0  , 0.0  , 0.0  , 0.0  , 0.0  , 0.01  , 0.01  , 0.06  , 0.07  , 0.09  , 0.1  , 0.11  , 0.0  , 0.0  , 0.0  , 0.0  , 0.0  , 0.0  , 0.0  , 0.0  , 0.0  , 0.0  , 0.0  , 0.0  , 0.0  , 0.0  , 0.0  , 0.0  , 0.0  , 0.0  , 0.0  , 0.0  , 0.0  , 0.0  , 0.0  , 0.0  , 0.0  , 0.0  , 0.0  , 0.0  , 0.0  , 0.0  , 0.0  , 0.0  , 0.0  , 0.0  , 0.0  , 0.0  , 0.0  , 0.0  , 0.0  , 0.0  , 0.0 );
                        kernels[101] = compute_kernel(x,   0.01  , 0.07  , 0.2  , 0.37  , 0.51  , 0.57  , 0.59  , 0.57  , 0.56  , 0.0  , 0.0  , 0.0  , 0.0  , 0.0  , 0.0  , 0.0  , 0.0  , 0.0  , 0.0  , 0.0  , 0.0  , 0.0  , 0.0  , 0.0  , 0.0  , 0.0  , 0.0  , 0.0  , 0.0  , 0.0  , 0.0  , 0.0  , 0.0  , 0.0  , 0.0  , 0.0  , 0.0  , 0.0  , 0.0  , 0.0  , 0.0  , 0.0  , 0.0  , 0.0  , 0.0  , 0.0  , 0.0  , 0.0  , 0.0  , 0.0  , -0.0  , 0.02  , 0.06  , 0.12  , 0.15  , 0.15  , 0.15  , 0.15  , 0.15  , 0.0  , 0.0  , 0.0  , 0.0  , 0.0  , 0.0  , 0.0  , 0.0  , 0.0  , 0.0  , 0.0  , 0.0  , 0.0  , 0.0  , 0.0  , 0.0  , 0.0  , 0.0  , 0.0  , 0.0  , 0.0  , 0.0  , 0.0  , 0.0  , 0.0  , 0.0  , 0.0  , 0.0  , 0.0  , 0.0  , 0.0  , 0.0  , 0.0  , 0.0  , 0.0  , 0.0  , 0.0  , 0.0  , 0.0  , 0.0  , 0.0 );
                        kernels[102] = compute_kernel(x,   -0.0  , 0.01  , 0.06  , 0.18  , 0.44  , 0.56  , 0.58  , 0.61  , 0.61  , 0.61  , 0.6  , 0.6  , 0.6  , 0.59  , 0.0  , 0.0  , 0.0  , 0.0  , 0.0  , 0.0  , 0.0  , 0.0  , 0.0  , 0.0  , 0.0  , 0.0  , 0.0  , 0.0  , 0.0  , 0.0  , 0.0  , 0.0  , 0.0  , 0.0  , 0.0  , 0.0  , 0.0  , 0.0  , 0.0  , 0.0  , 0.0  , 0.0  , 0.0  , 0.0  , 0.0  , 0.0  , 0.0  , 0.0  , 0.0  , 0.0  , -0.0  , -0.0  , 0.01  , 0.07  , 0.09  , 0.05  , -0.01  , -0.06  , -0.13  , -0.2  , -0.27  , -0.34  , -0.41  , -0.48  , 0.0  , 0.0  , 0.0  , 0.0  , 0.0  , 0.0  , 0.0  , 0.0  , 0.0  , 0.0  , 0.0  , 0.0  , 0.0  , 0.0  , 0.0  , 0.0  , 0.0  , 0.0  , 0.0  , 0.0  , 0.0  , 0.0  , 0.0  , 0.0  , 0.0  , 0.0  , 0.0  , 0.0  , 0.0  , 0.0  , 0.0  , 0.0  , 0.0  , 0.0  , 0.0  , 0.0 );
                        kernels[103] = compute_kernel(x,   0.0  , 0.0  , -0.0  , -0.01  , 0.03  , 0.17  , 0.24  , 0.28  , 0.28  , 0.27  , 0.0  , 0.0  , 0.0  , 0.0  , 0.0  , 0.0  , 0.0  , 0.0  , 0.0  , 0.0  , 0.0  , 0.0  , 0.0  , 0.0  , 0.0  , 0.0  , 0.0  , 0.0  , 0.0  , 0.0  , 0.0  , 0.0  , 0.0  , 0.0  , 0.0  , 0.0  , 0.0  , 0.0  , 0.0  , 0.0  , 0.0  , 0.0  , 0.0  , 0.0  , 0.0  , 0.0  , 0.0  , 0.0  , 0.0  , 0.0  , 0.0  , -0.0  , -0.0  , 0.01  , 0.04  , 0.08  , 0.06  , 0.09  , 0.12  , 0.16  , 0.0  , 0.0  , 0.0  , 0.0  , 0.0  , 0.0  , 0.0  , 0.0  , 0.0  , 0.0  , 0.0  , 0.0  , 0.0  , 0.0  , 0.0  , 0.0  , 0.0  , 0.0  , 0.0  , 0.0  , 0.0  , 0.0  , 0.0  , 0.0  , 0.0  , 0.0  , 0.0  , 0.0  , 0.0  , 0.0  , 0.0  , 0.0  , 0.0  , 0.0  , 0.0  , 0.0  , 0.0  , 0.0  , 0.0  , 0.0 );
                        kernels[104] = compute_kernel(x,   -0.01  , -0.0  , 0.07  , 0.15  , 0.2  , 0.21  , 0.19  , 0.0  , 0.0  , 0.0  , 0.0  , 0.0  , 0.0  , 0.0  , 0.0  , 0.0  , 0.0  , 0.0  , 0.0  , 0.0  , 0.0  , 0.0  , 0.0  , 0.0  , 0.0  , 0.0  , 0.0  , 0.0  , 0.0  , 0.0  , 0.0  , 0.0  , 0.0  , 0.0  , 0.0  , 0.0  , 0.0  , 0.0  , 0.0  , 0.0  , 0.0  , 0.0  , 0.0  , 0.0  , 0.0  , 0.0  , 0.0  , 0.0  , 0.0  , 0.0  , 0.02  , 0.06  , 0.11  , 0.12  , 0.12  , 0.12  , 0.12  , 0.0  , 0.0  , 0.0  , 0.0  , 0.0  , 0.0  , 0.0  , 0.0  , 0.0  , 0.0  , 0.0  , 0.0  , 0.0  , 0.0  , 0.0  , 0.0  , 0.0  , 0.0  , 0.0  , 0.0  , 0.0  , 0.0  , 0.0  , 0.0  , 0.0  , 0.0  , 0.0  , 0.0  , 0.0  , 0.0  , 0.0  , 0.0  , 0.0  , 0.0  , 0.0  , 0.0  , 0.0  , 0.0  , 0.0  , 0.0  , 0.0  , 0.0  , 0.0 );
                        kernels[105] = compute_kernel(x,   0.0  , 0.0  , 0.0  , -0.0  , -0.02  , 0.01  , 0.15  , 0.27  , 0.33  , 0.37  , 0.4  , 0.42  , 0.0  , 0.0  , 0.0  , 0.0  , 0.0  , 0.0  , 0.0  , 0.0  , 0.0  , 0.0  , 0.0  , 0.0  , 0.0  , 0.0  , 0.0  , 0.0  , 0.0  , 0.0  , 0.0  , 0.0  , 0.0  , 0.0  , 0.0  , 0.0  , 0.0  , 0.0  , 0.0  , 0.0  , 0.0  , 0.0  , 0.0  , 0.0  , 0.0  , 0.0  , 0.0  , 0.0  , 0.0  , 0.0  , -0.0  , -0.0  , -0.0  , 0.01  , 0.02  , 0.07  , 0.11  , 0.11  , 0.09  , 0.08  , 0.07  , 0.04  , 0.0  , 0.0  , 0.0  , 0.0  , 0.0  , 0.0  , 0.0  , 0.0  , 0.0  , 0.0  , 0.0  , 0.0  , 0.0  , 0.0  , 0.0  , 0.0  , 0.0  , 0.0  , 0.0  , 0.0  , 0.0  , 0.0  , 0.0  , 0.0  , 0.0  , 0.0  , 0.0  , 0.0  , 0.0  , 0.0  , 0.0  , 0.0  , 0.0  , 0.0  , 0.0  , 0.0  , 0.0  , 0.0 );
                        kernels[106] = compute_kernel(x,   -0.03  , -0.05  , 0.06  , 0.2  , 0.31  , 0.41  , 0.0  , 0.0  , 0.0  , 0.0  , 0.0  , 0.0  , 0.0  , 0.0  , 0.0  , 0.0  , 0.0  , 0.0  , 0.0  , 0.0  , 0.0  , 0.0  , 0.0  , 0.0  , 0.0  , 0.0  , 0.0  , 0.0  , 0.0  , 0.0  , 0.0  , 0.0  , 0.0  , 0.0  , 0.0  , 0.0  , 0.0  , 0.0  , 0.0  , 0.0  , 0.0  , 0.0  , 0.0  , 0.0  , 0.0  , 0.0  , 0.0  , 0.0  , 0.0  , 0.0  , 0.03  , 0.09  , 0.07  , 0.05  , 0.01  , -0.03  , 0.0  , 0.0  , 0.0  , 0.0  , 0.0  , 0.0  , 0.0  , 0.0  , 0.0  , 0.0  , 0.0  , 0.0  , 0.0  , 0.0  , 0.0  , 0.0  , 0.0  , 0.0  , 0.0  , 0.0  , 0.0  , 0.0  , 0.0  , 0.0  , 0.0  , 0.0  , 0.0  , 0.0  , 0.0  , 0.0  , 0.0  , 0.0  , 0.0  , 0.0  , 0.0  , 0.0  , 0.0  , 0.0  , 0.0  , 0.0  , 0.0  , 0.0  , 0.0  , 0.0 );
                        kernels[107] = compute_kernel(x,   -0.0  , -0.01  , -0.03  , -0.08  , -0.14  , -0.18  , -0.11  , -0.04  , 0.01  , 0.07  , 0.11  , 0.16  , 0.0  , 0.0  , 0.0  , 0.0  , 0.0  , 0.0  , 0.0  , 0.0  , 0.0  , 0.0  , 0.0  , 0.0  , 0.0  , 0.0  , 0.0  , 0.0  , 0.0  , 0.0  , 0.0  , 0.0  , 0.0  , 0.0  , 0.0  , 0.0  , 0.0  , 0.0  , 0.0  , 0.0  , 0.0  , 0.0  , 0.0  , 0.0  , 0.0  , 0.0  , 0.0  , 0.0  , 0.0  , 0.0  , 0.0  , -0.0  , -0.0  , 0.0  , 0.04  , 0.06  , 0.08  , 0.06  , 0.04  , 0.03  , 0.01  , -0.01  , 0.0  , 0.0  , 0.0  , 0.0  , 0.0  , 0.0  , 0.0  , 0.0  , 0.0  , 0.0  , 0.0  , 0.0  , 0.0  , 0.0  , 0.0  , 0.0  , 0.0  , 0.0  , 0.0  , 0.0  , 0.0  , 0.0  , 0.0  , 0.0  , 0.0  , 0.0  , 0.0  , 0.0  , 0.0  , 0.0  , 0.0  , 0.0  , 0.0  , 0.0  , 0.0  , 0.0  , 0.0  , 0.0 );
                        kernels[108] = compute_kernel(x,   -0.0  , 0.0  , 0.0  , 0.0  , 0.0  , 0.0  , 0.0  , 0.0  , 0.01  , 0.05  , 0.17  , 0.36  , 0.4  , 0.36  , 0.29  , 0.21  , 0.13  , 0.0  , 0.0  , 0.0  , 0.0  , 0.0  , 0.0  , 0.0  , 0.0  , 0.0  , 0.0  , 0.0  , 0.0  , 0.0  , 0.0  , 0.0  , 0.0  , 0.0  , 0.0  , 0.0  , 0.0  , 0.0  , 0.0  , 0.0  , 0.0  , 0.0  , 0.0  , 0.0  , 0.0  , 0.0  , 0.0  , 0.0  , 0.0  , 0.0  , -0.0  , -0.0  , -0.0  , -0.0  , -0.0  , -0.0  , -0.01  , -0.01  , -0.01  , 0.02  , 0.08  , 0.17  , 0.17  , 0.18  , 0.16  , 0.12  , 0.08  , 0.0  , 0.0  , 0.0  , 0.0  , 0.0  , 0.0  , 0.0  , 0.0  , 0.0  , 0.0  , 0.0  , 0.0  , 0.0  , 0.0  , 0.0  , 0.0  , 0.0  , 0.0  , 0.0  , 0.0  , 0.0  , 0.0  , 0.0  , 0.0  , 0.0  , 0.0  , 0.0  , 0.0  , 0.0  , 0.0  , 0.0  , 0.0  , 0.0 );
                        kernels[109] = compute_kernel(x,   0.05  , 0.21  , 0.28  , 0.29  , 0.0  , 0.0  , 0.0  , 0.0  , 0.0  , 0.0  , 0.0  , 0.0  , 0.0  , 0.0  , 0.0  , 0.0  , 0.0  , 0.0  , 0.0  , 0.0  , 0.0  , 0.0  , 0.0  , 0.0  , 0.0  , 0.0  , 0.0  , 0.0  , 0.0  , 0.0  , 0.0  , 0.0  , 0.0  , 0.0  , 0.0  , 0.0  , 0.0  , 0.0  , 0.0  , 0.0  , 0.0  , 0.0  , 0.0  , 0.0  , 0.0  , 0.0  , 0.0  , 0.0  , 0.0  , 0.0  , 0.03  , 0.03  , 0.0  , -0.02  , 0.0  , 0.0  , 0.0  , 0.0  , 0.0  , 0.0  , 0.0  , 0.0  , 0.0  , 0.0  , 0.0  , 0.0  , 0.0  , 0.0  , 0.0  , 0.0  , 0.0  , 0.0  , 0.0  , 0.0  , 0.0  , 0.0  , 0.0  , 0.0  , 0.0  , 0.0  , 0.0  , 0.0  , 0.0  , 0.0  , 0.0  , 0.0  , 0.0  , 0.0  , 0.0  , 0.0  , 0.0  , 0.0  , 0.0  , 0.0  , 0.0  , 0.0  , 0.0  , 0.0  , 0.0  , 0.0 );
                        kernels[110] = compute_kernel(x,   -0.03  , -0.07  , -0.12  , -0.07  , -0.0  , 0.05  , 0.1  , 0.0  , 0.0  , 0.0  , 0.0  , 0.0  , 0.0  , 0.0  , 0.0  , 0.0  , 0.0  , 0.0  , 0.0  , 0.0  , 0.0  , 0.0  , 0.0  , 0.0  , 0.0  , 0.0  , 0.0  , 0.0  , 0.0  , 0.0  , 0.0  , 0.0  , 0.0  , 0.0  , 0.0  , 0.0  , 0.0  , 0.0  , 0.0  , 0.0  , 0.0  , 0.0  , 0.0  , 0.0  , 0.0  , 0.0  , 0.0  , 0.0  , 0.0  , 0.0  , 0.02  , 0.04  , 0.09  , 0.1  , 0.1  , 0.08  , 0.05  , 0.0  , 0.0  , 0.0  , 0.0  , 0.0  , 0.0  , 0.0  , 0.0  , 0.0  , 0.0  , 0.0  , 0.0  , 0.0  , 0.0  , 0.0  , 0.0  , 0.0  , 0.0  , 0.0  , 0.0  , 0.0  , 0.0  , 0.0  , 0.0  , 0.0  , 0.0  , 0.0  , 0.0  , 0.0  , 0.0  , 0.0  , 0.0  , 0.0  , 0.0  , 0.0  , 0.0  , 0.0  , 0.0  , 0.0  , 0.0  , 0.0  , 0.0  , 0.0 );
                        kernels[111] = compute_kernel(x,   0.0  , -0.02  , -0.03  , 0.04  , 0.08  , 0.11  , 0.13  , 0.0  , 0.0  , 0.0  , 0.0  , 0.0  , 0.0  , 0.0  , 0.0  , 0.0  , 0.0  , 0.0  , 0.0  , 0.0  , 0.0  , 0.0  , 0.0  , 0.0  , 0.0  , 0.0  , 0.0  , 0.0  , 0.0  , 0.0  , 0.0  , 0.0  , 0.0  , 0.0  , 0.0  , 0.0  , 0.0  , 0.0  , 0.0  , 0.0  , 0.0  , 0.0  , 0.0  , 0.0  , 0.0  , 0.0  , 0.0  , 0.0  , 0.0  , 0.0  , -0.01  , 0.02  , 0.02  , 0.01  , -0.01  , -0.01  , -0.03  , 0.0  , 0.0  , 0.0  , 0.0  , 0.0  , 0.0  , 0.0  , 0.0  , 0.0  , 0.0  , 0.0  , 0.0  , 0.0  , 0.0  , 0.0  , 0.0  , 0.0  , 0.0  , 0.0  , 0.0  , 0.0  , 0.0  , 0.0  , 0.0  , 0.0  , 0.0  , 0.0  , 0.0  , 0.0  , 0.0  , 0.0  , 0.0  , 0.0  , 0.0  , 0.0  , 0.0  , 0.0  , 0.0  , 0.0  , 0.0  , 0.0  , 0.0  , 0.0 );
                        kernels[112] = compute_kernel(x,   -0.0  , -0.0  , -0.01  , -0.0  , 0.02  , 0.09  , 0.27  , 0.36  , 0.41  , 0.4  , 0.39  , 0.0  , 0.0  , 0.0  , 0.0  , 0.0  , 0.0  , 0.0  , 0.0  , 0.0  , 0.0  , 0.0  , 0.0  , 0.0  , 0.0  , 0.0  , 0.0  , 0.0  , 0.0  , 0.0  , 0.0  , 0.0  , 0.0  , 0.0  , 0.0  , 0.0  , 0.0  , 0.0  , 0.0  , 0.0  , 0.0  , 0.0  , 0.0  , 0.0  , 0.0  , 0.0  , 0.0  , 0.0  , 0.0  , 0.0  , 0.0  , 0.01  , 0.01  , 0.01  , 0.02  , 0.06  , 0.1  , 0.13  , 0.14  , 0.14  , 0.14  , 0.0  , 0.0  , 0.0  , 0.0  , 0.0  , 0.0  , 0.0  , 0.0  , 0.0  , 0.0  , 0.0  , 0.0  , 0.0  , 0.0  , 0.0  , 0.0  , 0.0  , 0.0  , 0.0  , 0.0  , 0.0  , 0.0  , 0.0  , 0.0  , 0.0  , 0.0  , 0.0  , 0.0  , 0.0  , 0.0  , 0.0  , 0.0  , 0.0  , 0.0  , 0.0  , 0.0  , 0.0  , 0.0  , 0.0 );
                        kernels[113] = compute_kernel(x,   -0.02  , -0.04  , 0.09  , 0.24  , 0.36  , 0.45  , 0.54  , 0.0  , 0.0  , 0.0  , 0.0  , 0.0  , 0.0  , 0.0  , 0.0  , 0.0  , 0.0  , 0.0  , 0.0  , 0.0  , 0.0  , 0.0  , 0.0  , 0.0  , 0.0  , 0.0  , 0.0  , 0.0  , 0.0  , 0.0  , 0.0  , 0.0  , 0.0  , 0.0  , 0.0  , 0.0  , 0.0  , 0.0  , 0.0  , 0.0  , 0.0  , 0.0  , 0.0  , 0.0  , 0.0  , 0.0  , 0.0  , 0.0  , 0.0  , 0.0  , 0.01  , 0.06  , 0.07  , 0.01  , -0.06  , -0.14  , -0.22  , 0.0  , 0.0  , 0.0  , 0.0  , 0.0  , 0.0  , 0.0  , 0.0  , 0.0  , 0.0  , 0.0  , 0.0  , 0.0  , 0.0  , 0.0  , 0.0  , 0.0  , 0.0  , 0.0  , 0.0  , 0.0  , 0.0  , 0.0  , 0.0  , 0.0  , 0.0  , 0.0  , 0.0  , 0.0  , 0.0  , 0.0  , 0.0  , 0.0  , 0.0  , 0.0  , 0.0  , 0.0  , 0.0  , 0.0  , 0.0  , 0.0  , 0.0  , 0.0 );
                        kernels[114] = compute_kernel(x,   0.02  , 0.09  , 0.22  , 0.28  , 0.31  , 0.29  , 0.26  , 0.0  , 0.0  , 0.0  , 0.0  , 0.0  , 0.0  , 0.0  , 0.0  , 0.0  , 0.0  , 0.0  , 0.0  , 0.0  , 0.0  , 0.0  , 0.0  , 0.0  , 0.0  , 0.0  , 0.0  , 0.0  , 0.0  , 0.0  , 0.0  , 0.0  , 0.0  , 0.0  , 0.0  , 0.0  , 0.0  , 0.0  , 0.0  , 0.0  , 0.0  , 0.0  , 0.0  , 0.0  , 0.0  , 0.0  , 0.0  , 0.0  , 0.0  , 0.0  , 0.01  , 0.02  , 0.02  , 0.02  , 0.01  , -0.01  , -0.02  , 0.0  , 0.0  , 0.0  , 0.0  , 0.0  , 0.0  , 0.0  , 0.0  , 0.0  , 0.0  , 0.0  , 0.0  , 0.0  , 0.0  , 0.0  , 0.0  , 0.0  , 0.0  , 0.0  , 0.0  , 0.0  , 0.0  , 0.0  , 0.0  , 0.0  , 0.0  , 0.0  , 0.0  , 0.0  , 0.0  , 0.0  , 0.0  , 0.0  , 0.0  , 0.0  , 0.0  , 0.0  , 0.0  , 0.0  , 0.0  , 0.0  , 0.0  , 0.0 );
                        kernels[115] = compute_kernel(x,   -0.01  , -0.03  , 0.06  , 0.19  , 0.3  , 0.36  , 0.0  , 0.0  , 0.0  , 0.0  , 0.0  , 0.0  , 0.0  , 0.0  , 0.0  , 0.0  , 0.0  , 0.0  , 0.0  , 0.0  , 0.0  , 0.0  , 0.0  , 0.0  , 0.0  , 0.0  , 0.0  , 0.0  , 0.0  , 0.0  , 0.0  , 0.0  , 0.0  , 0.0  , 0.0  , 0.0  , 0.0  , 0.0  , 0.0  , 0.0  , 0.0  , 0.0  , 0.0  , 0.0  , 0.0  , 0.0  , 0.0  , 0.0  , 0.0  , 0.0  , 0.02  , 0.08  , 0.14  , 0.13  , 0.13  , 0.1  , 0.0  , 0.0  , 0.0  , 0.0  , 0.0  , 0.0  , 0.0  , 0.0  , 0.0  , 0.0  , 0.0  , 0.0  , 0.0  , 0.0  , 0.0  , 0.0  , 0.0  , 0.0  , 0.0  , 0.0  , 0.0  , 0.0  , 0.0  , 0.0  , 0.0  , 0.0  , 0.0  , 0.0  , 0.0  , 0.0  , 0.0  , 0.0  , 0.0  , 0.0  , 0.0  , 0.0  , 0.0  , 0.0  , 0.0  , 0.0  , 0.0  , 0.0  , 0.0  , 0.0 );
                        kernels[116] = compute_kernel(x,   -0.0  , -0.01  , -0.01  , -0.02  , 0.01  , 0.09  , 0.24  , 0.34  , 0.38  , 0.38  , 0.36  , 0.35  , 0.0  , 0.0  , 0.0  , 0.0  , 0.0  , 0.0  , 0.0  , 0.0  , 0.0  , 0.0  , 0.0  , 0.0  , 0.0  , 0.0  , 0.0  , 0.0  , 0.0  , 0.0  , 0.0  , 0.0  , 0.0  , 0.0  , 0.0  , 0.0  , 0.0  , 0.0  , 0.0  , 0.0  , 0.0  , 0.0  , 0.0  , 0.0  , 0.0  , 0.0  , 0.0  , 0.0  , 0.0  , 0.0  , 0.0  , -0.0  , -0.0  , -0.01  , 0.0  , 0.04  , 0.06  , 0.02  , -0.02  , -0.06  , -0.09  , -0.13  , 0.0  , 0.0  , 0.0  , 0.0  , 0.0  , 0.0  , 0.0  , 0.0  , 0.0  , 0.0  , 0.0  , 0.0  , 0.0  , 0.0  , 0.0  , 0.0  , 0.0  , 0.0  , 0.0  , 0.0  , 0.0  , 0.0  , 0.0  , 0.0  , 0.0  , 0.0  , 0.0  , 0.0  , 0.0  , 0.0  , 0.0  , 0.0  , 0.0  , 0.0  , 0.0  , 0.0  , 0.0  , 0.0 );
                        kernels[117] = compute_kernel(x,   -0.0  , 0.0  , 0.0  , 0.0  , -0.02  , -0.08  , -0.02  , 0.05  , 0.17  , 0.25  , 0.32  , 0.0  , 0.0  , 0.0  , 0.0  , 0.0  , 0.0  , 0.0  , 0.0  , 0.0  , 0.0  , 0.0  , 0.0  , 0.0  , 0.0  , 0.0  , 0.0  , 0.0  , 0.0  , 0.0  , 0.0  , 0.0  , 0.0  , 0.0  , 0.0  , 0.0  , 0.0  , 0.0  , 0.0  , 0.0  , 0.0  , 0.0  , 0.0  , 0.0  , 0.0  , 0.0  , 0.0  , 0.0  , 0.0  , 0.0  , -0.0  , -0.0  , -0.0  , -0.01  , 0.01  , 0.05  , 0.11  , 0.1  , 0.14  , 0.15  , 0.16  , 0.0  , 0.0  , 0.0  , 0.0  , 0.0  , 0.0  , 0.0  , 0.0  , 0.0  , 0.0  , 0.0  , 0.0  , 0.0  , 0.0  , 0.0  , 0.0  , 0.0  , 0.0  , 0.0  , 0.0  , 0.0  , 0.0  , 0.0  , 0.0  , 0.0  , 0.0  , 0.0  , 0.0  , 0.0  , 0.0  , 0.0  , 0.0  , 0.0  , 0.0  , 0.0  , 0.0  , 0.0  , 0.0  , 0.0 );
                        kernels[118] = compute_kernel(x,   -0.04  , -0.14  , -0.11  , -0.01  , 0.11  , 0.24  , 0.0  , 0.0  , 0.0  , 0.0  , 0.0  , 0.0  , 0.0  , 0.0  , 0.0  , 0.0  , 0.0  , 0.0  , 0.0  , 0.0  , 0.0  , 0.0  , 0.0  , 0.0  , 0.0  , 0.0  , 0.0  , 0.0  , 0.0  , 0.0  , 0.0  , 0.0  , 0.0  , 0.0  , 0.0  , 0.0  , 0.0  , 0.0  , 0.0  , 0.0  , 0.0  , 0.0  , 0.0  , 0.0  , 0.0  , 0.0  , 0.0  , 0.0  , 0.0  , 0.0  , 0.03  , 0.11  , 0.09  , 0.06  , -0.01  , -0.06  , 0.0  , 0.0  , 0.0  , 0.0  , 0.0  , 0.0  , 0.0  , 0.0  , 0.0  , 0.0  , 0.0  , 0.0  , 0.0  , 0.0  , 0.0  , 0.0  , 0.0  , 0.0  , 0.0  , 0.0  , 0.0  , 0.0  , 0.0  , 0.0  , 0.0  , 0.0  , 0.0  , 0.0  , 0.0  , 0.0  , 0.0  , 0.0  , 0.0  , 0.0  , 0.0  , 0.0  , 0.0  , 0.0  , 0.0  , 0.0  , 0.0  , 0.0  , 0.0  , 0.0 );
                        kernels[119] = compute_kernel(x,   0.05  , 0.18  , 0.26  , 0.31  , 0.3  , 0.26  , 0.0  , 0.0  , 0.0  , 0.0  , 0.0  , 0.0  , 0.0  , 0.0  , 0.0  , 0.0  , 0.0  , 0.0  , 0.0  , 0.0  , 0.0  , 0.0  , 0.0  , 0.0  , 0.0  , 0.0  , 0.0  , 0.0  , 0.0  , 0.0  , 0.0  , 0.0  , 0.0  , 0.0  , 0.0  , 0.0  , 0.0  , 0.0  , 0.0  , 0.0  , 0.0  , 0.0  , 0.0  , 0.0  , 0.0  , 0.0  , 0.0  , 0.0  , 0.0  , 0.0  , 0.01  , 0.06  , 0.07  , 0.06  , 0.05  , 0.04  , 0.0  , 0.0  , 0.0  , 0.0  , 0.0  , 0.0  , 0.0  , 0.0  , 0.0  , 0.0  , 0.0  , 0.0  , 0.0  , 0.0  , 0.0  , 0.0  , 0.0  , 0.0  , 0.0  , 0.0  , 0.0  , 0.0  , 0.0  , 0.0  , 0.0  , 0.0  , 0.0  , 0.0  , 0.0  , 0.0  , 0.0  , 0.0  , 0.0  , 0.0  , 0.0  , 0.0  , 0.0  , 0.0  , 0.0  , 0.0  , 0.0  , 0.0  , 0.0  , 0.0 );
                        kernels[120] = compute_kernel(x,   0.03  , 0.12  , 0.24  , 0.34  , 0.37  , 0.36  , 0.0  , 0.0  , 0.0  , 0.0  , 0.0  , 0.0  , 0.0  , 0.0  , 0.0  , 0.0  , 0.0  , 0.0  , 0.0  , 0.0  , 0.0  , 0.0  , 0.0  , 0.0  , 0.0  , 0.0  , 0.0  , 0.0  , 0.0  , 0.0  , 0.0  , 0.0  , 0.0  , 0.0  , 0.0  , 0.0  , 0.0  , 0.0  , 0.0  , 0.0  , 0.0  , 0.0  , 0.0  , 0.0  , 0.0  , 0.0  , 0.0  , 0.0  , 0.0  , 0.0  , 0.03  , 0.08  , 0.13  , 0.15  , 0.14  , 0.15  , 0.0  , 0.0  , 0.0  , 0.0  , 0.0  , 0.0  , 0.0  , 0.0  , 0.0  , 0.0  , 0.0  , 0.0  , 0.0  , 0.0  , 0.0  , 0.0  , 0.0  , 0.0  , 0.0  , 0.0  , 0.0  , 0.0  , 0.0  , 0.0  , 0.0  , 0.0  , 0.0  , 0.0  , 0.0  , 0.0  , 0.0  , 0.0  , 0.0  , 0.0  , 0.0  , 0.0  , 0.0  , 0.0  , 0.0  , 0.0  , 0.0  , 0.0  , 0.0  , 0.0 );
                        kernels[121] = compute_kernel(x,   0.03  , 0.14  , 0.27  , 0.39  , 0.44  , 0.46  , 0.0  , 0.0  , 0.0  , 0.0  , 0.0  , 0.0  , 0.0  , 0.0  , 0.0  , 0.0  , 0.0  , 0.0  , 0.0  , 0.0  , 0.0  , 0.0  , 0.0  , 0.0  , 0.0  , 0.0  , 0.0  , 0.0  , 0.0  , 0.0  , 0.0  , 0.0  , 0.0  , 0.0  , 0.0  , 0.0  , 0.0  , 0.0  , 0.0  , 0.0  , 0.0  , 0.0  , 0.0  , 0.0  , 0.0  , 0.0  , 0.0  , 0.0  , 0.0  , 0.0  , 0.02  , 0.06  , 0.06  , 0.05  , 0.04  , 0.03  , 0.0  , 0.0  , 0.0  , 0.0  , 0.0  , 0.0  , 0.0  , 0.0  , 0.0  , 0.0  , 0.0  , 0.0  , 0.0  , 0.0  , 0.0  , 0.0  , 0.0  , 0.0  , 0.0  , 0.0  , 0.0  , 0.0  , 0.0  , 0.0  , 0.0  , 0.0  , 0.0  , 0.0  , 0.0  , 0.0  , 0.0  , 0.0  , 0.0  , 0.0  , 0.0  , 0.0  , 0.0  , 0.0  , 0.0  , 0.0  , 0.0  , 0.0  , 0.0  , 0.0 );
                        kernels[122] = compute_kernel(x,   -0.0  , -0.0  , -0.02  , -0.08  , -0.05  , 0.11  , 0.23  , 0.35  , 0.48  , 0.58  , 0.0  , 0.0  , 0.0  , 0.0  , 0.0  , 0.0  , 0.0  , 0.0  , 0.0  , 0.0  , 0.0  , 0.0  , 0.0  , 0.0  , 0.0  , 0.0  , 0.0  , 0.0  , 0.0  , 0.0  , 0.0  , 0.0  , 0.0  , 0.0  , 0.0  , 0.0  , 0.0  , 0.0  , 0.0  , 0.0  , 0.0  , 0.0  , 0.0  , 0.0  , 0.0  , 0.0  , 0.0  , 0.0  , 0.0  , 0.0  , 0.0  , -0.0  , -0.0  , 0.04  , 0.07  , 0.11  , 0.07  , 0.09  , 0.11  , 0.12  , 0.0  , 0.0  , 0.0  , 0.0  , 0.0  , 0.0  , 0.0  , 0.0  , 0.0  , 0.0  , 0.0  , 0.0  , 0.0  , 0.0  , 0.0  , 0.0  , 0.0  , 0.0  , 0.0  , 0.0  , 0.0  , 0.0  , 0.0  , 0.0  , 0.0  , 0.0  , 0.0  , 0.0  , 0.0  , 0.0  , 0.0  , 0.0  , 0.0  , 0.0  , 0.0  , 0.0  , 0.0  , 0.0  , 0.0  , 0.0 );
                        kernels[123] = compute_kernel(x,   -0.01  , -0.03  , 0.0  , 0.0  , 0.0  , 0.0  , 0.0  , 0.0  , 0.0  , 0.0  , 0.0  , 0.0  , 0.0  , 0.0  , 0.0  , 0.0  , 0.0  , 0.0  , 0.0  , 0.0  , 0.0  , 0.0  , 0.0  , 0.0  , 0.0  , 0.0  , 0.0  , 0.0  , 0.0  , 0.0  , 0.0  , 0.0  , 0.0  , 0.0  , 0.0  , 0.0  , 0.0  , 0.0  , 0.0  , 0.0  , 0.0  , 0.0  , 0.0  , 0.0  , 0.0  , 0.0  , 0.0  , 0.0  , 0.0  , 0.0  , -0.0  , -0.0  , 0.0  , 0.0  , 0.0  , 0.0  , 0.0  , 0.0  , 0.0  , 0.0  , 0.0  , 0.0  , 0.0  , 0.0  , 0.0  , 0.0  , 0.0  , 0.0  , 0.0  , 0.0  , 0.0  , 0.0  , 0.0  , 0.0  , 0.0  , 0.0  , 0.0  , 0.0  , 0.0  , 0.0  , 0.0  , 0.0  , 0.0  , 0.0  , 0.0  , 0.0  , 0.0  , 0.0  , 0.0  , 0.0  , 0.0  , 0.0  , 0.0  , 0.0  , 0.0  , 0.0  , 0.0  , 0.0  , 0.0  , 0.0 );
                        decisions[0] = 0.099935625584
                        + kernels[4] * 0.086970158661
                        + kernels[6] * 0.590876584442
                        + kernels[9] * 0.917072990623
                        + kernels[10] * 0.9176983822
                        + kernels[11]
                        + kernels[13] * 0.34448484287
                        + kernels[15]
                        + kernels[16]
                        + kernels[17]
                        + kernels[18] * 0.068394151013
                        + kernels[20] * 0.07514855077
                        + kernels[21] * 0.331117408041
                        + kernels[26] * 0.19845878206
                        + kernels[27] * 0.164610963865
                        + kernels[29] * 0.810384169707
                        + kernels[30] * 0.581265922658
                        + kernels[34] * -0.31744391876
                        + kernels[35] * -0.161488114967
                        + kernels[36] * -0.316927436929
                        - kernels[37]
                        + kernels[38] * -0.237692431237
                        - kernels[39]
                        + kernels[41] * -0.151883626801
                        + kernels[42] * -0.344989322677
                        + kernels[43] * -0.784649643896
                        - kernels[44]
                        + kernels[45] * -0.068570826881
                        + kernels[46] * -0.360964340569
                        + kernels[47] * -0.920794013785
                        - kernels[48]
                        - kernels[49]
                        + kernels[51] * -0.421079230408
                        ;
                        decisions[1] = 0.193390704424
                        + kernels[1]
                        + kernels[2]
                        + kernels[5]
                        + kernels[6] * 0.298684932009
                        + kernels[8]
                        + kernels[9]
                        + kernels[10]
                        + kernels[11]
                        + kernels[12] * 0.024699945331
                        + kernels[14] * 0.308193166087
                        + kernels[15]
                        + kernels[16]
                        + kernels[17]
                        + kernels[19] * 0.559379296227
                        + kernels[21] * 0.503443176876
                        + kernels[22]
                        + kernels[23]
                        + kernels[27] * 0.184788260802
                        + kernels[29]
                        + kernels[30]
                        - kernels[54]
                        - kernels[57]
                        + kernels[58] * -0.317420015254
